svm_type c_svc
kernel_type rbf
gamma 1.88
nr_class 2
total_sv 988
rho 0.634422
label 1 -1
nr_sv 74 914
SV
0.96319392 1:0.202046 2:0.219444 3:-0.597251 4:-0.00471092 5:0.0617284 6:-0.196429 7:-0.696822 8:0.0627871 9:-0.531987 10:-0.0457882 11:-0.701334 12:0.16229 13:-0.999888 14:0.164165 15:-0.146814 16:0.0260803 17:0.2 18:0.25 19:-1 21:-1 23:0.285714 24:-0.4 25:-0.555556 26:-0.142857 27:-0.75 29:0.0358277 30:-0.177528 31:0.0731703 32:0.0588235 33:0.328637 34:-0.0925877 35:0.339569 36:-0.121546 37:-0.846102 38:-0.451721 39:0.167725 40:-0.292395 41:0.766603 42:-0.179553 43:-1 45:0.161148 46:0.0411714 
0.96319392 1:0.539642 2:0.0361111 3:-1 4:0.246253 5:0.0123457 6:-0.160714 7:-1 8:0.25268 9:-1 10:0.245718 11:0.56197 12:-0.700754 13:-0.875387 14:0.252141 15:-0.146884 16:-0.744619 17:-0.4 18:0.25 19:-0.333333 21:-1 23:-0.571429 25:-0.777778 26:-0.142857 27:-0.75 29:0.790574 30:-0.0680943 31:-0.585366 32:0.2 33:-0.160531 34:-0.221581 35:0.783348 36:-0.115773 37:-0.851133 38:-0.388908 39:-0.0859786 40:-0.19616 41:-0.043816 42:0.407918 43:-0.515839 44:0.14833 45:-0.503646 46:0.130391 
0.96319392 1:0.611253 2:0.119444 3:-0.621993 4:0.576017 5:-0.209877 6:-0.571429 7:-0.775061 8:0.540582 9:-0.6633 10:0.560294 11:-0.682792 12:0.369732 13:-0.760703 14:0.401324 15:-0.14657 16:-0.283962 17:-0.6 18:0.25 19:-1 21:-1 23:-0.285714 25:0.111111 26:-0.142857 27:-0.5 29:0.22971 30:-0.144345 31:-0.463414 32:0.364706 33:0.224828 34:-0.648114 35:0.600751 36:-0.117634 37:-0.815683 38:-0.385499 39:-0.270258 40:0.415634 41:0.864194 42:-0.154831 43:-0.598715 44:0.216716 45:-0.25727 46:0.304154 
0.96319392 1:-1 2:0.872222 3:0.443299 4:-0.653105 5:0.382716 6:-0.428571 7:0.422983 8:-0.638591 9:0.8844 10:-0.927997 11:-0.419159 12:-0.0304818 13:-0.0950227 14:-0.402816 15:-0.14589 16:0.579264 17:-0.6 18:0.25 19:-0.333333 20:-0.333333 21:-1 23:0.142857 25:-0.333333 26:-0.142857 27:-0.75 29:0.589591 30:-0.350023 31:-0.146341 32:0.035294 33:0.197072 34:-0.198447 35:0.816884 36:-0.117595 37:-0.942303 38:-0.383182 39:0.10551 40:-0.300922 41:-0.520141 42:0.42234 43:0.073821 44:-1 45:-0.0998724 46:-0.0389467 
0.96319392 1:0.202046 2:0.219444 3:-0.597251 4:-0.00471092 5:0.0617284 6:-0.196429 7:-0.696822 8:0.0627871 9:-0.531987 10:-0.0457882 11:-0.701334 12:0.16229 13:-0.180203 14:0.124296 15:-0.145526 16:-0.0257943 17:-0.6 18:0.25 19:-0.666667 21:-0.333333 23:-0.857143 25:-1 26:-0.142857 27:-1 29:0.911116 30:-0.104497 31:-0.95122 32:0.129412 33:0.287172 34:-0.238472 35:0.859429 36:-0.115543 37:-0.7957 38:-0.390568 39:-0.50096 40:-0.0590189 41:0.0724569 42:0.402935 43:1 44:-0.0289813 45:-0.974222 46:0.061609 
0.96319392 1:-0.473146 2:0.586111 3:0.37457 4:-0.610278 5:0.580247 6:-0.571429 7:0.0709046 8:-0.41807 9:0.545455 10:-0.716882 11:-0.606592 12:0.0975659 13:0.326138 14:-0.53386 15:-0.145631 16:0.34836 17:-0.4 18:0.25 19:-1 21:-0.333333 23:-0.285714 25:-1 26:-0.142857 27:-1 29:0.41946 30:-0.280051 31:-0.390244 32:-0.0117646 33:-0.0564668 34:0.222368 35:0.733351 36:-0.0547128 37:-0.833215 38:-0.398306 39:-0.107151 40:-0.22184 41:0.0659083 42:0.523648 43:0.341126 44:-0.494863 45:-0.325188 46:-0.0166822 
0.96319392 1:0.836317 2:-0.125 3:0.285223 4:-0.554604 5:-1 6:0.571429 7:-0.0904645 8:-0.316998 9:0.178451 10:-0.488291 11:-0.360602 12:-0.0704858 13:-0.687171 14:0.0500714 15:-0.146089 16:0.326676 17:-0.4 18:0.25 19:-1 21:-1 23:0.142857 25:-0.555556 26:-0.142857 27:-0.5 29:-0.356531 30:0.0365252 31:-0.0243901 32:-0.105883 33:0.0815066 34:0.125216 35:0.770368 36:-0.0942564 37:-0.809293 38:-0.450509 39:0.377043 40:-0.508268 41:0.900316 42:-0.192353 43:-0.563724 44:-0.189884 45:0.178641 46:-0.201596 
0.96319392 1:0.836317 2:-0.125 3:0.285223 4:-0.554604 5:-1 6:0.571429 7:-0.0904645 8:-0.316998 9:0.178451 10:-0.488291 11:-0.360602 12:-0.0704858 13:-0.232025 14:-0.166348 15:-0.145786 16:0.38132 17:-0.2 18:0.25 19:-1 21:-1 25:-0.333333 26:-0.142857 27:-1 29:0.0925169 30:-0.0805968 31:-0.317073 32:0.0823527 33:-0.0700477 34:0.104391 35:0.408045 36:-0.112475 37:-0.780799 38:-0.427154 39:-0.0587758 40:-0.2281 41:0.893188 42:-0.174189 43:-0.0588065 44:-0.231381 45:-0.205957 46:-0.042023 
0.96319392 1:0.268542 2:0.183333 3:-0.294845 4:-0.193148 5:-0.0864198 6:-0.0892857 7:-0.471883 8:-0.0781011 9:-0.277217 10:-0.204474 11:-0.710568 12:0.168598 13:-0.749479 14:0.0830873 15:-0.146177 16:0.393062 18:0.25 19:-1 21:-1 23:-0.142857 25:-0.777778 26:-0.142857 27:-0.75 29:0.0928334 30:-0.031823 31:-0.268292 32:0.0823528 33:0.278684 34:-0.121702 35:0.524823 36:-0.100029 37:-0.687418 38:-0.445334 39:0.0535297 40:-0.257827 41:0.814366 42:-0.107864 43:-0.526621 44:-0.155673 45:-0.0547179 46:-0.0656045 
0.96319392 1:0.846547 2:-0.130556 3:-0.0171821 4:-0.366167 5:-0.753086 6:0.392857 7:-0.315403 8:-0.17611 9:-0.142536 10:-0.288361 11:-0.321984 12:-0.0968682 13:-0.275729 14:-0.0973197 15:-0.146278 16:-0.0250207 17:-1 18:0.25 19:-1 21:-0.333333 23:0.142857 25:-1 26:-0.142857 27:-0.5 29:0.384476 30:-0.0831687 31:-0.585366 32:0.0588232 33:-0.299141 34:0.161727 35:-0.00902524 36:-0.117806 37:-0.648739 38:-0.444726 39:-0.193111 40:-0.151835 41:0.939908 42:-0.185724 43:-0.0816395 44:-0.053686 45:-0.322511 46:0.0033482 
0.96319392 1:0.268542 2:0.183333 3:-0.294845 4:-0.193148 5:-0.0864198 6:-0.0892857 7:-0.471883 8:-0.0781011 9:-0.277217 10:-0.204474 11:-0.710568 12:0.168598 13:-0.874549 14:0.175677 15:-0.146413 16:-0.0792516 18:0.25 19:-1 21:-1 25:-0.111111 26:-0.142857 27:-1 29:0.0175903 30:-0.00686395 31:-0.0243903 32:-0.0352943 33:0.462196 34:0.0628967 35:0.60463 36:-0.115428 37:-0.852541 38:-0.419917 39:0.172571 40:-0.331219 41:0.805155 42:-0.16164 43:-0.879717 44:0.0909201 45:0.00148805 46:-0.094622 
0.96319392 1:0.539642 2:0.0361111 3:-1 4:0.246253 5:0.0123457 6:-0.160714 7:-1 8:0.25268 9:-1 10:0.245718 11:0.56197 12:-0.700754 13:-0.858486 14:0.255339 15:-0.14688 16:-0.678641 17:-0.4 18:0.25 19:-0.333333 21:-1 23:-0.571429 25:-0.777778 26:-0.142857 27:-0.75 29:0.655213 30:-0.0927395 31:-0.585366 32:0.247059 33:-0.0324032 34:-0.16094 35:0.636959 36:-0.163429 37:-0.879282 38:-0.386673 39:-0.0903006 40:-0.183565 41:0.531619 42:-0.541161 43:-0.423518 44:0.069671 45:-0.494296 46:0.133925 
0.96319392 1:0.268542 2:0.183333 3:-0.294845 4:-0.193148 5:-0.0864198 6:-0.0892857 7:-0.471883 8:-0.0781011 9:-0.277217 10:-0.204474 11:-0.710568 12:0.168598 13:-0.120758 14:0.000315877 15:-0.145764 16:-0.0316625 17:-0.8 18:0.25 19:-0.333333 21:-1 23:-0.714286 25:-1 26:-0.142857 27:-0.5 29:0.698532 30:-0.0677488 31:-0.804878 32:0.129412 33:-0.0210716 34:-0.133452 35:0.512973 36:-0.0995685 37:-0.86756 38:-0.380502 39:-0.357279 40:-0.0875608 41:0.73949 42:-0.028924 43:0.62397 44:-0.307223 45:-0.646106 46:0.0835433 
0.96319392 1:-0.473146 2:0.586111 3:0.37457 4:-0.610278 5:0.580247 6:-0.571429 7:0.0709046 8:-0.41807 9:0.545455 10:-0.716882 11:-0.606592 12:0.0975659 13:0.192216 14:-0.364272 15:-0.145774 16:0.194958 17:-0.4 18:0.25 19:-0.666667 21:-1 23:-0.285714 25:-0.777778 26:-0.142857 27:-0.5 29:0.341299 30:-0.306566 31:-0.439024 32:-0.0117648 33:-0.276223 34:0.26061 35:0.389384 36:-0.133762 37:-0.886057 38:-0.39016 39:-0.0857993 40:-0.245211 41:0.195857 42:0.496073 43:0.361969 44:-0.428348 45:-0.247687 46:-0.0281441 
0.96319392 1:0.539642 2:0.0361111 3:-1 4:0.246253 5:0.0123457 6:-0.160714 7:-1 8:0.25268 9:-1 10:0.245718 11:0.56197 12:-0.700754 13:-0.794636 14:0.286861 15:-0.146932 16:-0.690825 17:-0.8 18:0.25 19:-0.333333 21:-1 23:-0.285714 25:-1 26:-0.142857 27:-0.5 29:0.0347527 30:-0.0739207 31:-0.560976 32:0.2 33:0.145337 34:-0.396895 35:0.388101 36:-0.105494 37:-0.854355 38:-0.404124 39:-0.167935 40:-0.155055 41:0.905815 42:-0.154507 43:-0.256495 44:0.120663 45:-0.420637 46:0.131692 
0.96319392 1:0.611253 2:0.119444 3:-0.621993 4:0.576017 5:-0.209877 6:-0.571429 7:-0.775061 8:0.540582 9:-0.6633 10:0.560294 11:-0.682792 12:0.369732 13:-0.979652 14:0.252441 15:-0.146697 16:-0.0367365 17:-0.6 18:0.25 19:0.333333 21:-1 23:-0.142857 25:-0.555556 26:-0.142857 27:-1 29:0.190756 30:-0.428661 31:-0.0487805 32:0.529412 33:0.109008 34:-0.601479 35:0.693172 36:-0.153514 37:-0.906864 38:-0.41498 39:-0.197998 40:0.561856 41:0.469219 42:-0.302821 43:-0.959615 44:0.308481 45:0.0517714 46:0.36525 
0.96319392 1:0.611253 2:0.119444 3:-0.621993 4:0.576017 5:-0.209877 6:-0.571429 7:-0.775061 8:0.540582 9:-0.6633 10:0.560294 11:-0.682792 12:0.369732 13:-0.734473 14:0.396991 15:-0.146032 16:-0.0514552 17:-0.4 18:0.25 19:0.333333 21:-0.333333 23:-0.285714 25:-0.777778 26:-0.142857 27:-1 29:0.238178 30:-0.0743793 31:-0.560976 32:0.482353 33:0.361825 34:-0.906363 35:0.31144 36:-0.0742928 37:-0.847102 38:-0.404795 39:-0.317234 40:0.384042 41:0.816057 42:-0.315513 43:-0.355298 44:0.0248978 45:-0.307103 46:0.294332 
0.96319392 1:0.836317 2:-0.125 3:0.285223 4:-0.554604 5:-1 6:0.571429 7:-0.0904645 8:-0.316998 9:0.178451 10:-0.488291 11:-0.360602 12:-0.0704858 13:-0.851832 14:0.189416 15:-0.146057 16:0.191938 19:-0.333333 21:-1 23:0.571429 24:-0.6 25:-0.333333 26:-0.142857 27:-0.75 29:-0.0175351 30:0.0653902 31:0.0731707 32:-0.294118 33:-0.103066 34:0.375177 35:0.0749202 36:-0.0992041 37:-0.773496 38:-0.43937 39:0.639695 40:-0.719257 41:0.874547 42:-0.186091 43:-0.890001 44:0.242301 45:0.349515 46:-0.438862 
0.96319392 1:1 2:-0.213889 3:0.285223 4:-0.554604 5:-0.925926 6:0.517857 7:-0.0904645 8:-0.316998 9:0.0426487 10:-0.403705 11:-0.578179 12:0.0781551 13:-0.998945 14:0.177152 15:-0.146521 16:0.0841299 17:-0.4 19:-1 21:-0.333333 23:0.857143 24:-0.4 25:-0.777778 26:-0.428571 27:-0.25 29:-0.677307 30:0.23352 31:0.487805 32:-0.388236 33:0.134005 34:-0.262603 35:0.180047 36:0.0288235 37:-0.937552 38:-0.408357 39:0.77801 40:-0.792603 41:0.884606 42:-0.163951 43:-1 44:0.0916713 45:0.633773 46:-0.515008 
0.96319392 1:0.539642 2:0.0361111 3:-1 4:0.246253 5:0.0123457 6:-0.160714 7:-1 8:0.25268 9:-1 10:0.245718 11:0.56197 12:-0.700754 13:-0.636646 14:0.269047 15:-0.146454 16:-0.224805 17:-0.6 18:0.25 19:-0.666667 21:-1 23:-0.285714 25:-1 26:-0.142857 27:-1 29:0.317041 30:-0.107596 31:-0.804878 32:0.247059 33:0.74905 34:-0.606096 35:0.37819 36:-0.11631 37:-0.821901 38:-0.401277 39:-0.301944 40:-0.101567 41:0.611029 42:-0.044378 43:0.322415 44:-0.142234 45:-0.679825 46:0.156399 
0.96319392 1:-1 2:0.65 3:0.443299 4:-0.637687 5:0.382716 6:-0.232143 7:0.422983 8:-0.589587 9:0.8844 10:-0.846208 11:-0.419159 12:-0.0431485 13:0.590517 14:-0.671784 15:-0.145748 16:0.468224 17:-0.4 18:0.25 19:-0.666667 21:-1 25:-1 26:-0.142857 27:-0.75 29:0.802481 30:-0.274182 31:-0.609756 32:0.0588232 33:0.393867 34:-0.0176782 35:0.387246 36:-0.117403 37:-0.96175 38:-0.362152 39:-0.292701 40:0.0524104 41:-0.194533 42:0.627947 43:0.578588 44:-0.51472 45:-0.539683 46:0.051486 
0.96319392 1:0.621483 2:-0.00833333 3:0.293471 4:-0.559743 5:-0.802469 6:0.428571 7:0.0806846 8:-0.424196 9:0.294052 10:-0.560294 11:-0.715414 12:0.171909 13:-0.952161 14:0.168424 15:-0.146554 16:-0.286509 17:-0.4 19:-1 21:0.333333 22:-0.5 23:0.142857 25:-0.555556 26:-0.428571 29:0.289594 30:-0.154308 31:0.414634 32:-0.435294 33:0.708435 34:-0.263285 35:0.182231 36:-0.10047 37:-0.737883 38:-0.436182 39:0.607832 40:-0.672834 41:0.682223 42:-0.0558188 43:-0.961294 44:0.0938499 45:0.616181 46:-0.499675 
0.96319392 1:0.539642 2:0.0361111 3:-1 4:0.246253 5:0.0123457 6:-0.160714 7:-1 8:0.25268 9:-1 10:0.245718 11:0.56197 12:-0.700754 13:-1 14:0.164108 15:-0.147076 16:-0.140591 18:0.25 19:-1 21:-1 23:0.142857 25:0.111111 26:-0.142857 27:-0.75 29:0.132156 30:-0.14827 31:-0.219512 32:0.294118 33:0.447554 34:-0.16435 35:0.176427 36:-0.124902 37:-0.936081 38:-0.400422 39:0.046609 40:-0.203593 41:0.835325 42:-0.165535 43:-1 44:0.0785758 45:-0.0766857 46:0.220958 
0.96319392 1:1 2:-0.213889 3:0.285223 4:-0.554604 5:-0.925926 6:0.517857 7:-0.0904645 8:-0.316998 9:0.0426487 10:-0.403705 11:-0.578179 12:0.0781551 13:-1 14:0.165507 15:-0.146471 16:-0.172842 19:-1 21:-0.333333 23:-0.142857 25:-0.111111 26:-0.714286 27:-0.25 29:-0.0376922 30:0.178228 31:0.439025 32:-0.317648 33:0.646599 34:-0.0411792 35:0.730663 36:-0.116617 37:-0.604226 38:-0.509256 39:0.781677 40:-0.786481 41:0.822806 42:-0.176503 43:-1 45:0.59613 46:-0.445165 
0.96319392 1:1 2:-0.0861111 3:0.285223 4:-0.17773 5:-0.925926 6:0.125 7:-0.0904645 8:-0.0290965 9:0.0426487 10:-0.0793429 11:-0.578179 12:0.324646 13:-1 14:0.164108 15:-0.146471 16:0.0367429 18:0.25 19:-1 21:-0.333333 23:-0.142857 25:-0.111111 26:-0.142857 27:-0.25 29:-0.0376922 30:-0.0172894 31:0.439025 32:-0.011765 33:0.646599 34:-0.056287 35:0.730663 36:-0.117077 37:-0.604226 38:-0.44394 39:0.781677 40:-0.178412 41:0.822806 42:-0.169291 43:-1 45:0.59613 46:-0.134273 
0.96319392 1:1 2:-0.252778 3:0.285223 4:-0.79015 5:-0.925926 6:0.678571 7:-0.0904645 8:-0.457887 9:0.0426487 10:-0.613422 11:-0.578179 12:0.928532 13:-1 14:0.201326 15:-0.146471 16:0.326713 19:-1 21:-0.333333 23:-0.142857 25:-0.111111 26:-0.714286 27:-0.25 29:-0.0376922 30:0.35585 31:0.439025 32:-0.62353 33:0.646599 34:-0.041494 35:0.730663 36:-0.110308 37:-0.604226 38:-0.512741 39:0.781677 40:-0.609488 41:0.822806 42:-0.179701 43:-1 44:0.127722 45:0.59613 46:-0.686853 
0.96319392 1:0.846547 2:-0.130556 3:-0.0171821 4:-0.366167 5:-0.753086 6:0.392857 7:-0.315403 8:-0.17611 9:-0.142536 10:-0.288361 11:-0.321984 12:-0.0968682 13:-0.321923 14:-0.0538461 15:-0.145973 16:0.106865 17:-0.8 18:0.25 21:-1 23:-0.285714 25:-1 26:-0.142857 27:-0.75 29:0.140098 30:-0.0695514 31:-0.414634 32:0.105882 33:-0.170037 34:0.274616 35:0.153307 36:-0.188916 37:-0.71713 38:-0.447341 39:-0.319256 40:-0.0478265 41:0.815968 42:-0.248059 43:0.148211 44:-0.329663 45:-0.322163 46:0.0308046 
0.96319392 1:0.836317 2:0.00277778 3:0.285223 4:-0.17773 5:-1 6:0.178571 7:-0.0904645 8:-0.0290965 9:0.178451 10:-0.163929 11:-0.360602 12:0.176005 13:-0.0870312 14:-0.0367142 15:-0.145817 16:0.0561697 17:-0.8 18:0.25 19:-1 21:-1 23:-0.142857 25:-0.333333 26:-0.142857 27:-0.75 29:0.064588 30:0.0125734 31:-0.268292 32:0.0588233 33:-0.53965 34:0.123118 35:0.706687 36:-0.105341 37:-0.697121 38:-0.428373 39:-0.238922 40:-0.01358 41:0.937368 42:-0.176406 43:0.149456 44:-0.0784846 45:-0.220703 46:-0.0129803 
0.96319392 1:-1 2:0.872222 3:0.443299 4:-0.653105 5:0.382716 6:-0.428571 7:0.422983 8:-0.638591 9:0.8844 10:-0.927997 11:-0.419159 12:-0.0304818 13:-0.609308 14:0.0255944 15:-0.146222 16:-0.0438792 17:-0.4 18:0.25 19:-0.666667 21:-0.333333 23:-0.142857 25:-0.111111 26:-0.142857 27:-1 29:0.295928 30:-0.46083 31:0.0487805 32:-0.0823532 33:-0.365263 34:0.237161 35:0.500069 36:-0.0947358 37:-0.839334 38:-0.423983 39:0.382954 40:-0.538275 41:-0.131014 42:0.257983 43:-0.16392 44:-0.483968 45:-6.43348e-05 46:-0.14577 
0.96319392 1:-1 2:0.463889 3:0.443299 4:-0.19743 5:0.382716 7:0.422983 8:-0.228178 9:0.8844 10:-0.403006 11:-0.419159 12:0.17745 13:-0.609308 14:0.300521 15:-0.146222 16:-0.473062 17:-0.4 18:0.5 19:-0.666667 21:-0.333333 23:-0.142857 25:-0.111111 26:-0.142857 27:-1 29:0.295928 30:-0.559921 31:0.0487805 32:0.105882 33:-0.365263 34:-0.0245502 35:0.500069 36:-0.019465 37:-0.839334 38:-0.381148 39:0.382954 40:-0.151784 41:-0.131014 42:0.295022 43:-0.16392 44:-0.238005 45:-6.43348e-05 46:-0.00753771 
0.96319392 1:0.846547 2:-0.130556 3:-0.0171821 4:-0.366167 5:-0.753086 6:0.392857 7:-0.315403 8:-0.17611 9:-0.142536 10:-0.288361 11:-0.321984 12:-0.0968682 13:-0.859003 14:0.110218 15:-0.146109 16:0.327248 17:-0.4 18:0.25 19:0.333333 21:-0.333333 24:-0.2 25:-0.111111 26:-0.142857 27:-1 29:-0.0692975 30:-0.0912677 31:0.121952 32:-0.129412 33:-0.2567 34:0.373026 35:0.449384 36:-0.115102 37:0.0556301 38:-0.699873 39:0.455609 40:-0.543032 41:0.875866 42:-0.184584 43:-0.859252 44:0.0138709 45:0.192219 46:-0.180848 
0.96319392 1:0.611253 2:0.119444 3:-0.621993 4:0.576017 5:-0.209877 6:-0.571429 7:-0.775061 8:0.540582 9:-0.6633 10:0.560294 11:-0.682792 12:0.369732 13:-0.930287 14:0.207946 15:-0.14633 16:0.517396 17:-0.6 18:0.25 19:0.333333 20:0.333333 21:0.333333 22:0.5 23:-0.428571 25:-0.777778 26:-0.142857 27:-1 29:-0.108218 30:-0.344278 31:-0.170732 32:0.576471 33:0.0941114 34:-0.392593 35:0.204587 36:-0.237492 37:-0.834972 38:-0.378 39:-0.217967 40:0.678555 41:0.824121 42:-0.15928 43:-0.818269 44:-0.0634949 45:-0.0770571 46:0.514291 
0.96319392 1:0.611253 2:-0.411111 3:-0.621993 4:0.466381 5:-0.209877 6:0.428571 7:-0.775061 8:0.522205 9:-0.6633 10:0.560993 11:-0.682792 12:0.357555 13:-0.962807 14:0.135207 15:-0.146458 16:0.35673 17:-0.4 18:0.25 19:0.666667 21:-0.333333 23:-0.428571 24:0.2 25:-1 26:-0.142857 27:-1 29:0.281753 30:-0.467939 31:-0.0731709 32:0.811764 33:-0.0478515 34:-0.559461 35:-0.51928 36:-0.649803 37:-0.859388 38:-0.409179 39:-0.212171 40:0.592099 41:0.723346 42:-0.4479 43:-0.939423 44:-0.0785758 45:-0.0254631 46:0.723128 
0.96319392 1:0.902813 2:-0.161111 3:0.587629 4:-0.743041 5:-0.925926 6:0.517857 7:0.418093 8:-0.635528 9:0.511785 10:-0.695911 11:-0.462869 12:-0.000620966 13:0.140467 14:-0.400509 15:-0.145708 16:0.491065 17:-0.4 18:0.25 19:-1 21:-0.333333 23:-0.571429 25:-0.111111 26:-0.142857 27:-0.75 29:0.161364 30:-0.0862248 31:-0.219512 32:-0.0352944 33:-0.307374 34:0.254367 35:0.358963 36:-0.117518 37:-0.67086 38:-0.455462 39:-0.15037 40:-0.169832 41:0.81895 42:-0.113694 43:0.219202 44:-0.477634 45:-0.265159 46:-0.0156306 
0.2777288488854214 1:0.902813 2:-0.0388889 3:0.587629 4:-0.17773 5:-0.925926 6:-0.0535714 7:0.418093 8:-0.206738 9:0.511785 10:-0.171618 11:-0.462869 12:0.219488 13:0.140467 14:-0.101158 15:-0.145708 16:0.190457 17:-0.4 18:0.25 19:-1 21:-0.333333 23:-0.571429 25:-0.111111 26:-0.142857 27:-0.75 29:0.161364 30:-0.083982 31:-0.219512 32:0.105882 33:-0.307374 34:-0.126633 35:0.358963 36:-0.117518 37:-0.67086 38:-0.438215 39:-0.15037 40:0.0101338 41:0.81895 42:-0.112343 43:0.219202 44:-0.183944 45:-0.265159 46:0.0833313 
0.96319392 1:0.902813 2:-0.2 3:0.587629 4:-0.978587 5:-0.925926 6:0.678571 7:0.418093 8:-0.776417 9:0.511785 10:-0.905627 11:-0.462869 12:0.849756 13:0.140467 14:-0.507452 15:-0.145708 16:1 17:-0.4 18:0.25 19:-1 21:-0.333333 23:-0.571429 25:-0.111111 26:-0.142857 27:-0.75 29:0.161364 30:-0.070982 31:-0.219512 32:-0.176471 33:-0.307374 34:0.662907 35:0.358963 36:-0.117518 37:-0.67086 38:-0.470598 39:-0.15037 40:-0.0384839 41:0.81895 42:-0.134715 43:0.219202 44:-0.298991 45:-0.265159 46:-0.107516 
0.96319392 1:0.902813 2:-0.155556 3:0.587629 4:-0.172591 5:-0.925926 6:0.0892857 7:0.418093 8:-0.0995406 9:0.511785 10:-0.0996155 11:-0.462869 12:-0.0229065 13:0.140467 14:0.049362 15:-0.145708 16:0.212737 17:-0.4 18:0.25 19:-1 21:-0.333333 23:-0.571429 25:-0.111111 26:-0.142857 27:-0.75 29:0.161364 30:-0.0985266 31:-0.219512 32:0.0823529 33:-0.307374 34:-0.0954204 35:0.358963 36:-0.117518 37:-0.67086 38:-0.466639 39:-0.15037 40:0.00691486 41:0.81895 42:-0.192232 43:0.219202 44:-0.15893 45:-0.265159 46:0.0810643 
0.7644028343276857 1:0.611253 2:0.119444 3:-0.621993 4:0.576017 5:-0.209877 6:-0.571429 7:-0.775061 8:0.540582 9:-0.6633 10:0.560294 11:-0.682792 12:0.369732 13:-0.726744 14:0.372403 15:-0.14621 16:-0.186278 18:0.25 19:-1 21:-1 23:-0.428571 25:-0.333333 26:-0.142857 27:-0.5 29:0.177076 30:-0.0952181 31:-0.463414 32:0.364706 33:0.424 34:-0.662697 35:0.258281 36:-0.11888 37:-0.772581 38:-0.395544 39:-0.316516 40:0.348753 41:0.864745 42:-0.157062 43:-0.407229 44:0.215283 45:-0.280856 46:0.241258 
0.96319392 1:0.611253 2:0.208333 3:-0.621993 4:0.576017 5:-0.209877 6:-0.517857 7:-0.775061 8:0.540582 9:-0.6633 10:0.475708 11:-0.682792 12:0.221091 13:-0.726744 14:0.420204 15:-0.14621 16:-0.060245 18:0.25 19:-1 21:-1 23:-0.428571 25:-0.333333 26:-0.142857 27:-0.5 29:0.177076 30:-0.0921996 31:-0.463414 32:0.317647 33:0.424 34:-0.719929 35:0.258281 36:-0.11888 37:-0.772581 38:-0.37192 39:-0.316516 40:0.259706 41:0.864745 42:-0.16032 43:-0.407229 44:0.302538 45:-0.280856 46:0.212061 
0.96319392 1:0.902813 2:-0.161111 3:0.587629 4:-0.743041 5:-0.925926 6:0.517857 7:0.418093 8:-0.635528 9:0.511785 10:-0.695911 11:-0.462869 12:-0.000620966 13:-0.267109 14:-0.283543 15:-0.145998 16:0.424421 17:-0.2 18:0.25 19:-1 21:-1 24:-0.2 25:-0.777778 26:-0.142857 27:-0.5 29:-0.0101757 30:-0.124797 31:-0.0487801 32:-0.0352945 33:-0.311745 34:0.478833 35:0.651085 36:-0.117442 37:-0.583461 38:-0.492976 39:0.234995 40:-0.404012 41:0.884353 42:-0.184005 43:-0.224671 44:-0.625915 45:0.0853839 46:-0.199677 
0.7556579200167612 1:0.902813 2:0.05 3:0.587629 4:-0.17773 5:-0.925926 7:0.418093 8:-0.206738 9:0.511785 10:-0.256204 11:-0.462869 12:0.070847 13:-0.267109 14:-0.12383 15:-0.145998 16:0.453577 17:-0.2 18:0.25 19:-1 21:-1 25:-0.777778 26:0.142857 27:-0.5 29:-0.0101757 30:-0.212215 31:-0.0487801 32:0.247059 33:-0.311745 34:-0.0665687 35:0.651085 36:-0.135929 37:-0.583461 38:-0.322813 39:0.234995 40:0.120387 41:0.884353 42:-0.154395 43:-0.224671 44:-0.495092 45:0.0853839 46:0.159464 
0.7322580421571547 1:0.902813 2:-0.0333333 3:0.587629 4:-0.366167 5:-0.925926 6:0.125 7:0.418093 8:-0.347626 9:0.511785 10:-0.371548 11:-0.462869 12:0.24587 13:-0.267109 14:-0.154653 15:-0.145998 16:0.337718 17:-0.2 18:0.25 19:-1 21:-1 24:-0.2 25:-0.777778 26:-0.142857 27:-0.5 29:-0.0101757 30:-0.147503 31:-0.0487801 32:0.105882 33:-0.311745 34:-0.0425956 35:0.651085 36:-0.124729 37:-0.583461 38:-0.369684 39:0.234995 40:0.00771742 41:0.884353 42:-0.159377 43:-0.224671 44:-0.506035 45:0.0853839 46:0.0394328 
0.96319392 1:0.836317 2:-0.125 3:0.285223 4:-0.554604 5:-1 6:0.571429 7:-0.0904645 8:-0.316998 9:0.178451 10:-0.488291 11:-0.360602 12:-0.0704858 13:-0.254535 14:-0.132622 15:-0.146005 16:-0.0677034 17:-0.6 18:0.25 19:-1 21:-1 23:0.285714 25:-0.555556 26:-0.142857 27:-1 29:-0.00819185 30:-0.087156 31:-0.268292 32:0.035294 33:-0.297528 34:-0.0104391 35:0.251409 36:-0.10001 37:-0.707525 38:-0.434097 39:-0.106346 40:-0.194608 41:0.949231 42:-0.179555 43:-0.121127 44:-0.118525 45:-0.0915287 46:-0.106872 
0.96319392 1:0.611253 2:0.119444 3:-0.621993 4:0.576017 5:-0.209877 6:-0.571429 7:-0.775061 8:0.540582 9:-0.6633 10:0.560294 11:-0.682792 12:0.369732 13:-0.554538 14:0.284322 15:-0.145978 16:0.191039 17:-0.2 18:0.5 19:-0.666667 21:-1 23:-0.285714 24:0.2 25:-0.555556 26:-0.142857 27:-0.5 29:0.205761 30:-0.579888 31:-0.560976 32:0.717647 33:0.354058 34:-0.794786 35:0.581449 36:-0.40232 37:-0.774454 38:-0.430335 39:-0.377025 40:0.4653 41:0.881418 42:-0.220371 43:-0.0924572 44:-0.366149 45:-0.318454 46:0.590803 
0.96319392 1:0.202046 2:0.219444 3:-0.597251 4:-0.00471092 5:0.0617284 6:-0.196429 7:-0.696822 8:0.0627871 9:-0.531987 10:-0.0457882 11:-0.701334 12:0.16229 13:-0.916499 14:0.163764 15:-0.146655 16:-0.10649 18:0.25 19:-1 21:-0.333333 23:-0.142857 25:-0.333333 26:-0.142857 27:-0.75 29:-0.0052118 30:-0.0471963 31:-0.170732 32:0.0352942 33:0.427607 34:-0.142055 35:-0.168639 36:0.642995 37:-0.822141 38:-0.430024 39:0.120682 40:-0.277626 41:0.847693 42:-0.172185 43:-0.86518 44:0.00281979 45:0.0774383 46:0.0105318 
0.96319392 1:-0.16624 2:0.419444 3:-0.450172 4:-0.0963597 5:1 6:-0.875 7:-0.486553 8:-0.0689127 9:-0.207632 10:-0.247815 11:-0.907366 12:0.303044 13:-0.9997 14:0.163875 15:-0.146896 16:-0.455068 17:0.4 19:-1 21:-1 23:0.285714 25:-1 26:-0.142857 27:-0.75 29:0.0610742 30:-0.558476 31:0.146341 32:-0.0823528 33:0.878111 34:-0.0836175 35:-0.0462868 36:0.0752517 37:-0.655707 38:-0.49977 39:0.39397 40:-0.474468 41:0.821194 42:-0.161807 43:-1 45:0.401293 46:-0.235847 
0.96319392 1:0.902813 2:-0.161111 3:0.587629 4:-0.743041 5:-0.925926 6:0.517857 7:0.418093 8:-0.635528 9:0.511785 10:-0.695911 11:-0.462869 12:-0.000620966 13:-0.0490764 14:-0.311279 15:-0.145789 16:0.220465 21:-0.333333 22:-0.5 23:-0.428571 24:-0.2 25:-0.777778 26:-0.142857 27:-1 29:0.251601 30:-0.147519 31:-0.170732 32:-0.082353 33:-0.337846 34:0.0802077 35:0.355008 36:0.0185061 37:-0.685787 38:-0.443352 39:-0.00318124 40:-0.283152 41:0.860023 42:-0.1395 43:-0.0611748 44:-0.187142 45:-0.0643965 46:-0.225412 
0.96319392 1:0.836317 2:-0.125 3:0.285223 4:-0.554604 5:-1 6:0.571429 7:-0.0904645 8:-0.316998 9:0.178451 10:-0.488291 11:-0.360602 12:-0.0704858 13:-0.537343 14:-0.0375784 15:-0.146279 16:-0.267283 17:-0.8 18:0.25 19:-0.666667 21:-1 23:-0.428571 25:-0.555556 26:-0.142857 27:-0.5 28:-0.5 29:0.233906 30:0.0687087 31:-0.146341 32:-0.0823533 33:-0.39183 34:0.0658868 35:0.571125 36:-0.0852622 37:-0.803479 38:-0.423515 39:0.210954 40:-0.410174 41:0.778344 42:-0.191458 43:-0.415182 44:-0.123521 45:-0.115896 46:-0.140725 
0.96319392 1:-0.16624 2:0.419444 3:-0.450172 4:-0.0963597 5:1 6:-0.875 7:-0.486553 8:-0.0689127 9:-0.207632 10:-0.247815 11:-0.907366 12:0.303044 13:-0.729231 14:0.101897 15:-0.146227 16:-0.302859 17:0.4 18:0.25 19:-1 21:-1 23:-0.714286 25:0.555556 26:-0.142857 27:-1 29:0.354294 30:-0.411398 31:-0.219512 32:0.0117647 33:-0.122971 34:-0.00986204 35:0.786907 36:-0.11119 37:-0.770617 38:-0.439321 39:0.160156 40:-0.34759 41:0.655132 42:0.0133603 43:-0.480291 44:-0.0717128 45:-0.169061 46:-0.0549291 
0.96319392 1:0.611253 2:0.119444 3:-0.621993 4:0.576017 5:-0.209877 6:-0.571429 7:-0.775061 8:0.540582 9:-0.6633 10:0.560294 11:-0.682792 12:0.369732 13:-0.922063 14:0.225256 15:-0.14649 16:0.284529 17:0.2 18:0.25 19:-1 21:-1 24:0.2 25:-0.111111 26:-0.142857 27:-1 29:-0.0397945 30:-0.38969 31:-0.170732 32:0.647059 33:0.442844 34:-0.787704 35:0.483576 36:-0.231278 37:-0.782916 38:-0.379538 39:-0.229558 40:0.672699 41:0.884823 42:-0.149907 43:-0.787981 44:-0.0371724 45:-0.0182716 46:0.570732 
0.96319392 1:0.611253 2:0.119444 3:-0.621993 4:0.576017 5:-0.209877 6:-0.571429 7:-0.775061 8:0.540582 9:-0.6633 10:0.560294 11:-0.682792 12:0.369732 13:-0.861196 14:0.288796 15:-0.146425 16:-0.294156 17:-0.8 18:0.5 19:0.333333 21:-0.333333 25:-0.777778 26:-0.142857 27:-1 29:0.466849 30:-0.415607 31:-0.292683 32:0.458823 33:0.25165 34:-0.311703 35:0.532718 36:-0.156583 37:-0.857093 38:-0.350762 39:-0.239886 40:0.46444 41:0.590677 42:-0.217032 43:-0.783971 44:0.334895 45:-0.0742455 46:0.296355 
0.96319392 1:0.268542 2:0.183333 3:-0.294845 4:-0.193148 5:-0.0864198 6:-0.0892857 7:-0.471883 8:-0.0781011 9:-0.277217 10:-0.204474 11:-0.710568 12:0.168598 13:-0.442626 14:0.0336525 15:-0.14581 16:0.058289 17:-0.4 18:0.25 19:-0.666667 21:-0.333333 23:-0.714286 25:-1 26:-0.142857 27:-1 29:0.783724 30:-0.0589491 31:-0.682927 32:0.129412 33:0.214175 34:-0.139905 35:0.826428 36:-0.109004 37:-0.758724 38:-0.373019 39:-0.168935 40:-0.154161 41:0.387791 42:-0.0907194 43:-0.025191 44:-0.237393 45:-0.605969 46:0.0308051 
0.96319392 1:-0.140665 2:0.405556 3:0.109278 4:-0.444968 5:0.382716 6:-0.428571 7:-0.119804 8:-0.298622 9:0.179574 10:-0.48899 11:-0.378426 12:-0.0583089 13:0.0809056 14:-0.275438 15:-0.145603 16:0.250086 17:-0.6 18:0.25 19:-0.666667 21:-0.333333 23:-0.571429 25:-1 26:-0.142857 27:-1 29:0.25246 30:0.0447837 31:-0.463415 32:0.0823528 33:-0.0954695 34:-0.285894 35:0.790175 36:-0.117595 37:-0.953678 38:-0.354163 39:-0.239064 40:-0.132966 41:0.440308 42:0.167709 43:0.509807 44:-0.635088 45:-0.567225 46:0.0736158 
0.96319392 1:0.0895141 2:0.280556 3:0.0859107 4:-0.430407 5:0.358025 6:-0.410714 7:0.124694 8:-0.451761 9:0.283951 10:-0.554002 11:-0.81227 12:0.238077 13:-0.348599 14:-0.0905804 15:-0.145927 16:0.113923 17:-0.6 18:0.25 19:0.333333 20:-0.333333 21:-0.333333 23:-0.142857 24:-0.2 25:-1 26:-0.142857 27:-1 29:0.386959 30:0.0186964 31:-0.121951 32:-0.2 33:-0.0491671 34:0.125531 35:0.249683 36:0.130885 37:-0.900758 38:-0.396493 39:-0.345345 40:-0.0146336 41:0.576661 42:0.0719753 43:-0.236711 44:0.0575924 45:-0.033959 46:-0.210931 
0.96319392 1:-0.104859 2:0.386111 3:-0.193127 4:-0.256531 5:0.654321 6:-0.625 7:-0.344743 8:-0.157734 9:-0.131313 10:-0.295351 11:-0.695793 12:0.158505 13:-0.970871 14:0.157462 15:-0.146718 16:-0.374083 17:0.2 18:0.25 19:-1 21:-0.333333 23:0.285714 24:-0.4 25:-0.333333 26:-0.142857 27:-0.5 28:-0.5 29:-0.156598 30:0.589605 31:0.195122 32:-0.317647 33:0.918175 34:-0.256413 35:0.800864 36:0.0122159 37:-0.398088 38:-0.437288 39:0.198434 40:-0.323292 41:0.849166 42:-0.16679 43:-0.967406 44:-0.00298881 45:0.276368 46:-0.296648 
0.96319392 1:0.611253 2:0.119444 3:-0.621993 4:0.576017 5:-0.209877 6:-0.571429 7:-0.775061 8:0.540582 9:-0.6633 10:0.560294 11:-0.682792 12:0.369732 13:-0.870407 14:0.395132 15:-0.146325 16:-0.0174746 17:-0.8 18:0.25 19:-1 21:-0.333333 23:0.428571 25:-0.555556 26:-0.142857 27:-0.5 29:0.184829 30:-0.0898712 31:-0.243902 32:0.341176 33:0.0185252 34:-0.540576 35:-0.344105 36:-0.232007 37:-0.920792 38:-0.405336 39:-0.270117 40:0.440156 41:0.894318 42:-0.154321 43:-0.63654 44:0.283084 45:0.0196385 46:0.354057 
0.96319392 1:0.0895141 2:0.280556 3:0.0859107 4:-0.430407 5:0.358025 6:-0.410714 7:0.124694 8:-0.451761 9:0.283951 10:-0.554002 11:-0.81227 12:0.238077 13:-0.189343 14:-0.150251 15:-0.145963 16:-0.266699 17:-0.8 19:-1 21:-1 23:-0.428571 25:-0.777778 26:-0.142857 27:0.25 28:-0.5 29:0.158114 30:0.247773 31:-0.439024 32:-0.152941 33:0.104 34:0.0515659 35:0.790343 36:-0.0768051 37:-0.810094 38:-0.397238 39:-0.0865317 40:-0.248275 41:0.689278 42:0.0208865 43:0.016723 44:-0.0186305 45:-0.176854 46:-0.173319 
0.96319392 1:0.611253 2:0.119444 3:-0.621993 4:0.576017 5:-0.209877 6:-0.571429 7:-0.775061 8:0.540582 9:-0.6633 10:0.560294 11:-0.682792 12:0.369732 13:-0.991931 14:0.161803 15:-0.14645 16:0.34129 17:-0.8 18:1 21:-0.333333 24:0.2 25:-0.777778 26:0.142857 27:-1 29:0.120299 30:-0.415114 31:-0.195122 32:0.811765 33:0.0148753 34:-0.795677 35:0.80427 36:-0.563256 37:-0.852563 38:-0.366244 39:-0.202785 40:0.766966 41:0.895785 42:-0.22223 43:-0.989904 44:-0.0130955 45:0.034036 46:0.644647 
0.96319392 1:0.846547 2:-0.130556 3:-0.0171821 4:-0.366167 5:-0.753086 6:0.392857 7:-0.315403 8:-0.17611 9:-0.142536 10:-0.288361 11:-0.321984 12:-0.0968682 13:-0.86501 14:0.144584 15:-0.146569 16:-0.408655 17:-0.6 18:0.25 19:-1 21:-1 23:0.714286 24:-0.4 25:-0.555556 26:-0.142857 27:-0.75 29:-0.0984265 30:0.141704 31:-0.0243899 32:-0.129412 33:0.166472 34:-0.195247 35:0.00876563 36:-0.0279413 37:-0.786653 38:-0.427412 39:0.393539 40:-0.506006 41:0.86717 42:-0.181092 43:-0.807397 44:0.0644715 45:0.0684472 46:-0.139753 
0.96319392 1:-1 2:0.994444 3:0.443299 4:-0.0877944 5:0.382716 6:-1 7:0.422983 8:-0.209801 9:0.8844 10:-0.403705 11:-0.419159 12:0.189627 13:0.590517 14:-0.291592 15:-0.145748 16:0.357462 17:-0.4 18:0.25 19:-0.666667 21:-1 24:-0.2 25:-1 26:-0.142857 27:-0.75 29:0.802481 30:-0.451002 31:-0.609756 32:0.152941 33:0.393867 34:-0.231496 35:0.387246 36:-0.121987 37:-0.96175 38:-0.300741 39:-0.292701 40:-0.074677 41:-0.194533 42:0.656017 43:0.578588 44:-0.375762 45:-0.539683 46:0.131837 
0.96319392 1:0.846547 2:-0.00833333 3:-0.0171821 4:0.199143 5:-0.753086 6:-0.178571 7:-0.315403 8:0.25268 9:-0.142536 10:0.235931 11:-0.321984 12:0.123241 13:-0.734557 14:0.298748 15:-0.146065 16:0.0422237 17:-0.8 18:0.25 19:-1 21:-0.333333 23:0.428571 25:-0.777778 26:-0.142857 27:-0.25 29:0.172013 30:-0.0432073 31:-0.0731701 32:0.152941 33:0.0259523 34:-0.495305 35:0.234015 36:-0.170927 37:-0.724791 38:-0.451311 39:0.224816 40:0.0388939 41:0.893208 42:-0.156235 43:-0.585163 44:0.150831 45:0.0451046 46:0.169092 
0.96319392 1:0.621483 2:0.119444 3:0.293471 4:-0.182869 5:-0.802469 6:0.0357143 7:0.0806846 8:-0.136294 9:0.294052 10:-0.235931 11:-0.715414 12:0.4184 13:-0.952161 14:0.156053 15:-0.146554 16:-0.340179 17:-0.4 18:0.25 19:-1 21:0.333333 23:0.142857 24:0.2 25:-0.555556 26:-0.142857 29:0.289594 30:-0.381977 31:0.414634 32:-0.0823527 33:0.708435 34:-0.240099 35:0.182231 36:-0.103289 37:-0.737883 38:-0.419518 39:0.607832 40:-0.0995718 41:0.682223 42:-0.0401941 43:-0.961294 44:0.0650993 45:0.616181 46:-0.237565 
0.96319392 1:0.836317 2:0.0861111 3:0.285223 4:0.0107066 5:-1 6:0.0535714 7:-0.0904645 8:0.111792 9:0.178451 10:-0.0485844 11:-0.360602 12:0.000982165 13:-0.0870312 14:0.0677685 15:-0.145817 16:0.167055 17:-0.8 18:0.25 19:-1 21:-1 23:-0.142857 25:-0.333333 26:-0.142857 27:-0.75 29:0.064588 30:0.0162118 31:-0.268292 32:0.129412 33:-0.53965 34:-0.133347 35:0.706687 36:-0.105341 37:-0.697121 38:-0.42685 39:-0.238922 40:-0.0126364 41:0.937368 42:-0.172344 43:0.149456 44:-0.0679835 45:-0.220703 46:0.0575815 
0.96319392 1:0.42711 2:0.0972222 3:0.612371 4:-0.758458 5:-0.679012 6:0.339286 7:0.457213 8:-0.660031 9:0.668911 10:-0.793778 11:-0.563926 12:0.0684176 13:-0.88009 14:0.136151 15:-0.146586 16:-0.0536067 17:-0.6 20:-0.333333 21:-1 23:0.714286 24:-0.8 25:-0.555556 26:-0.142857 27:-0.5 28:-0.5 29:-0.519834 30:0.556753 31:0.609757 32:-0.647059 33:-0.270875 34:0.263967 35:0.114335 36:0.445373 37:0.748639 38:-0.67335 39:0.8864 40:-0.895394 41:0.86637 42:-0.177227 43:-0.895757 44:0.0664247 45:0.774455 46:-0.82299 
0.96319392 1:0.611253 2:0.119444 3:-0.621993 4:0.576017 5:-0.209877 6:-0.571429 7:-0.775061 8:0.540582 9:-0.6633 10:0.560294 11:-0.682792 12:0.369732 13:-0.962807 14:0.135207 15:-0.146458 16:0.305955 17:-0.4 18:0.25 19:0.666667 21:-0.333333 23:-0.428571 25:-1 26:-0.142857 27:-1 29:0.281753 30:0.0240726 31:-0.0731709 32:0.788235 33:-0.0478515 34:-0.74044 35:-0.51928 36:-0.53706 37:-0.859388 38:-0.439071 39:-0.212171 40:0.779859 41:0.723346 42:-0.461154 43:-0.939423 44:-0.0785758 45:-0.0254631 46:0.662389 
0.96319392 1:0.611253 2:0.125 3:-0.621993 4:0.38758 5:-0.209877 6:-0.392857 7:-0.775061 8:0.399694 9:-0.6633 10:0.360364 11:-0.682792 12:0.396114 13:-0.962807 14:0.135207 15:-0.146458 16:0.104292 17:-0.4 18:0.25 19:0.666667 21:-0.333333 23:-0.428571 24:0.2 25:-1 26:-0.142857 27:-1 29:0.281753 30:-0.0054307 31:-0.0731709 32:0.6 33:-0.0478515 34:-0.298012 35:-0.51928 36:-0.343868 37:-0.859388 38:-0.361022 39:-0.212171 40:0.6214 41:0.723346 42:-0.493565 43:-0.939423 44:-0.0785758 45:-0.0254631 46:0.539471 
0.8034162989062688 1:0.902813 2:-0.0333333 3:0.587629 4:-0.366167 5:-0.925926 6:0.125 7:0.418093 8:-0.347626 9:0.511785 10:-0.371548 11:-0.462869 12:0.24587 13:0.140467 14:-0.234678 15:-0.145708 16:0.339376 17:-0.4 18:0.25 19:-1 21:-0.333333 23:-0.571429 25:-0.111111 26:-0.142857 27:-0.75 29:0.161364 30:-0.085459 31:-0.219512 32:0.105882 33:-0.307374 34:-0.11803 35:0.358963 36:-0.117518 37:-0.67086 38:-0.421606 39:-0.15037 40:-0.00620178 41:0.81895 42:-0.102238 43:0.219202 44:-0.292949 45:-0.265159 46:0.0535165 
0.96319392 1:0.611253 2:-0.225 3:-0.621993 4:0.0261242 5:-0.209877 6:0.196429 7:-0.775061 8:0.160796 9:-0.6633 10:0.117791 11:-0.682792 12:0.136956 13:-0.726744 14:0.175363 15:-0.14621 16:0.366931 18:0.25 19:-1 21:-1 23:-0.428571 25:-0.333333 26:-0.142857 27:-0.5 29:0.177076 30:-0.0380529 31:-0.463414 32:0.223529 33:0.424 34:-0.0108587 35:0.258281 36:-0.119724 37:-0.772581 38:-0.400088 39:-0.316516 40:0.227069 41:0.864745 42:-0.17491 43:-0.407229 44:-0.00442151 45:-0.280856 46:0.121095 
0.07232958690986505 1:0.902813 2:-0.0388889 3:0.587629 4:-0.17773 5:-0.925926 6:-0.0535714 7:0.418093 8:-0.206738 9:0.511785 10:-0.171618 11:-0.462869 12:0.219488 13:-0.267109 14:-0.113273 15:-0.145998 16:0.52344 17:-0.2 18:0.25 19:-1 21:-1 25:-0.777778 26:0.142857 27:-0.5 29:-0.0101757 30:-0.223063 31:-0.0487801 32:0.2 33:-0.311745 34:0.0766931 35:0.651085 36:-0.126474 37:-0.583461 38:-0.460514 39:0.234995 40:0.048268 41:0.884353 42:-0.151146 43:-0.224671 44:-0.333175 45:0.0853839 46:0.0748038 
0.96319392 1:0.902813 2:-0.155556 3:0.587629 4:-0.172591 5:-0.925926 6:0.0892857 7:0.418093 8:-0.0995406 9:0.511785 10:-0.0996155 11:-0.462869 12:-0.0229065 13:-0.267109 14:-0.0426666 15:-0.145998 16:0.475976 17:-0.2 18:0.25 19:-1 21:-1 25:-0.777778 26:-0.142857 27:-0.5 29:-0.0101757 30:-0.159671 31:-0.0487801 32:0.0588233 33:-0.311745 34:0.318418 35:0.651085 36:-0.118439 37:-0.583461 38:-0.464368 39:0.234995 40:-0.0221023 41:0.884353 42:-0.224242 43:-0.224671 44:-0.249062 45:0.0853839 46:-0.00779431 
0.96319392 1:0.0895141 2:0.280556 3:0.0859107 4:-0.430407 5:0.358025 6:-0.410714 7:0.124694 8:-0.451761 9:0.283951 10:-0.554002 11:-0.81227 12:0.238077 13:-0.761395 14:0.0932402 15:-0.146166 16:0.0395566 17:0.2 19:-0.333333 20:-0.333333 21:-1 23:-0.428571 25:-0.777778 26:-0.142857 27:-0.75 29:0.253922 30:-0.119734 31:0.0975609 32:-0.22353 33:-0.17861 34:0.197555 35:0.704626 36:-0.11654 37:-0.855248 38:-0.41162 39:0.410407 40:-0.544527 41:0.608557 42:0.0537756 43:-0.660651 44:-0.010705 45:0.210307 46:-0.425074 
0.96319392 1:1 2:-0.213889 3:0.285223 4:-0.554604 5:-0.925926 6:0.517857 7:-0.0904645 8:-0.316998 9:0.0426487 10:-0.403705 11:-0.578179 12:0.0781551 13:-0.993914 14:0.200025 15:-0.146372 16:-0.157831 17:0.2 19:-0.666667 21:-0.333333 23:0.142857 25:-0.333333 26:-0.428571 27:-0.5 29:-0.0766241 30:0.151159 31:0.317073 32:-0.388235 33:0.892286 34:-0.339244 35:0.14923 36:0.150484 37:-0.821983 38:-0.420679 39:0.770674 40:-0.796179 41:0.833345 42:-0.190839 43:-1 44:0.144056 45:0.513567 46:-0.487155 
0.96319392 1:0.902813 2:-0.161111 3:0.587629 4:-0.743041 5:-0.925926 6:0.517857 7:0.418093 8:-0.635528 9:0.511785 10:-0.695911 11:-0.462869 12:-0.000620966 13:-0.936092 14:0.212653 15:-0.146282 16:0.167402 17:0.6 19:-0.666667 21:-1 23:-0.142857 24:-0.4 25:-0.333333 26:-0.142857 27:-0.75 29:-0.0672633 30:0.119042 31:0.634146 32:-0.552941 33:0.936297 34:-0.357341 35:0.289419 36:-0.0433023 37:-0.843571 38:-0.409775 39:0.995588 40:-1 41:0.804245 42:-0.152881 43:-0.990874 44:0.282727 45:0.538217 46:-0.594873 
0.96319392 1:-0.104859 2:0.386111 3:-0.193127 4:-0.256531 5:0.654321 6:-0.625 7:-0.344743 8:-0.157734 9:-0.131313 10:-0.295351 11:-0.695793 12:0.158505 13:-0.96763 14:0.160952 15:-0.146604 16:-0.436979 17:-0.2 18:0.25 19:-0.666667 21:-1 23:0.142857 24:-0.6 25:-0.333333 26:-0.142857 27:-0.75 29:0.0644793 30:0.294263 31:-0.073171 32:-0.105883 33:0.593082 34:-0.215758 35:0.760671 36:-0.0440694 37:-0.622906 38:-0.444673 39:0.187668 40:-0.320963 41:0.740609 42:-0.168354 43:-0.956696 44:0.100981 45:0.0245884 46:-0.254292 
-0.07680608 1:0.611253 2:-0.225 3:-0.621993 4:0.0261242 5:-0.209877 6:0.196429 7:-0.775061 8:0.160796 9:-0.6633 10:0.117791 11:-0.682792 12:0.136956 13:-0.999814 14:0.16405 15:-0.116933 16:-0.0260803 17:0.2 18:0.25 19:-1 21:-1 24:0.4 25:-0.555556 26:-0.142857 27:-0.75 29:-0.0416653 30:0.0134167 31:-0.0487807 32:0.294117 33:0.39009 34:-0.244505 35:0.336423 36:-0.113645 37:-0.940735 38:-0.394405 39:-0.195605 40:0.292395 41:0.758445 42:-0.16443 43:-1 45:0.115782 46:0.135839 
-0.07680608 1:0.611253 2:-0.0416667 3:-0.621993 4:-0.224839 5:-0.209877 6:0.160714 7:-0.775061 8:-0.0290965 9:-0.6633 10:-0.173715 11:-0.682792 12:1 13:-0.762095 14:0.0760748 15:-1 16:0.744619 17:-0.4 18:0.25 19:-0.333333 21:-1 23:-0.571429 25:-0.777778 26:-0.142857 27:-0.75 29:0.801906 30:-0.0960171 31:-0.560976 32:0.152941 33:-0.203438 34:-0.115512 35:0.784799 36:-0.119417 37:-0.738351 38:-0.457217 39:-0.329728 40:0.19616 41:0.581767 42:-0.751901 43:-0.401486 44:-0.14833 45:-0.463502 46:0.0466194 
-0.07680608 1:0.836317 2:-0.125 3:0.285223 4:-0.554604 5:-1 6:0.571429 7:-0.0904645 8:-0.316998 9:0.178451 10:-0.488291 11:-0.360602 12:-0.0704858 13:-0.700731 14:0.0394193 15:-0.483442 16:0.294156 17:-0.6 19:0.333333 21:-0.333333 25:-0.777778 26:-0.142857 27:-1 29:0.196112 30:0.251495 31:9.45127e-08 32:-0.105883 33:0.13583 34:-0.0253895 35:0.501672 36:-0.0786077 37:-0.618345 38:-0.495364 39:0.337227 40:-0.46444 41:0.542088 42:-0.126951 43:-0.525788 44:-0.334895 45:0.124962 46:-0.119345 
-0.07680608 1:0.611253 2:-0.225 3:-0.621993 4:0.0261242 5:-0.209877 6:0.196429 7:-0.775061 8:0.160796 9:-0.6633 10:0.117791 11:-0.682792 12:0.136956 13:-0.231438 14:0.20392 15:-0.175079 16:0.0257943 17:-0.6 18:0.25 19:-0.666667 21:-0.333333 23:-0.857143 25:-1 26:-0.142857 27:-1 29:0.892901 30:-0.0596146 31:-1 32:0.223529 33:0.230599 34:-0.0986204 35:0.861063 36:-0.119647 37:-0.688398 38:-0.455557 39:-0.574297 40:0.0590189 41:0.692664 42:-0.746918 43:0.977657 44:0.0289813 45:-1 46:0.115401 
-0.07680608 1:0.611253 2:-0.286111 3:-0.621993 4:0.45182 5:-0.209877 6:0.410714 7:-0.775061 8:0.675345 9:-0.6633 10:0.626005 11:-0.682792 12:0.0611689 13:-0.676365 14:0.418796 15:-0.0154042 16:-0.113923 17:-0.6 18:0.25 20:0.333333 21:-0.333333 23:-0.285714 24:0.2 25:-1 26:-0.142857 27:-1 29:0.468737 30:-0.182808 31:-0.512195 32:0.552941 33:0.188753 34:-0.462624 35:0.447551 36:-0.366075 37:-0.813022 38:-0.449632 39:-0.363529 40:0.0146336 41:0.839842 42:-0.415958 43:-0.192311 44:-0.0575924 45:-0.320946 46:0.387941 
-0.07680608 1:0.611253 2:0.119444 3:-0.621993 4:0.576017 5:-0.209877 6:-0.571429 7:-0.775061 8:0.540582 9:-0.6633 10:0.560294 11:-0.682792 12:0.369732 13:-0.833928 14:0.278144 15:0.228186 16:-0.326676 17:-0.4 18:0.25 19:-1 21:-1 23:0.142857 25:-0.555556 26:-0.142857 27:-0.5 29:-0.260281 30:-0.200637 31:-0.317073 32:0.458824 33:0.319172 34:-0.462309 35:0.788953 36:-0.140934 37:-0.899926 38:-0.395616 39:-0.254531 40:0.508268 41:0.878351 42:-0.15163 43:-0.710113 44:0.189884 45:-0.0993976 46:0.378606 
-0.07680608 1:0.611253 2:0.119444 3:-0.621993 4:0.576017 5:-0.209877 6:-0.571429 7:-0.775061 8:0.540582 9:-0.6633 10:0.560294 11:-0.682792 12:0.369732 13:-0.657298 14:0.494563 15:0.291096 16:-0.38132 17:-0.2 18:0.25 19:-1 21:-1 25:-0.333333 26:-0.142857 27:-1 29:0.093701 30:-0.0835146 31:-0.414634 32:0.270588 33:0.150769 34:-0.441484 35:0.412122 36:-0.122716 37:-0.79431 38:-0.418971 39:-0.342213 40:0.2281 41:0.890817 42:-0.169793 43:-0.237187 44:0.231381 45:-0.331058 46:0.219033 
-0.07680608 1:0.611253 2:-0.188889 3:-0.621993 4:0.214561 5:-0.209877 6:0.0892857 7:-0.775061 8:0.301685 9:-0.6633 10:0.276477 11:-0.682792 12:0.130648 13:-0.853747 14:0.245128 15:0.304158 16:-0.393062 18:0.25 19:-1 21:-1 23:-0.142857 25:-0.777778 26:-0.142857 27:-0.75 29:0.133606 30:-0.132288 31:-0.365853 32:0.270588 33:0.316584 34:-0.215391 35:0.538812 36:-0.135162 37:-0.76096 38:-0.400791 39:-0.266847 40:0.257827 41:0.883544 42:-0.236119 43:-0.646636 44:0.155673 45:-0.20242 46:0.242615 
-0.07680608 1:0.442455 2:0.0888889 3:-0.386942 4:-0.13576 5:-0.851852 6:0.464286 7:-0.374083 8:-0.139357 9:-0.349046 10:-0.159734 11:-1 12:0.366328 13:-0.991285 14:0.16932 15:-0.146719 16:-0.223168 17:-0.4 19:-1 21:-1 23:-0.142857 25:0.111111 26:-0.142857 27:-0.75 29:-0.0392356 30:-0.0775269 31:-0.146341 32:0.0823525 33:0.541687 34:-0.0973089 35:0.726356 36:-0.116905 37:-0.71524 38:-0.429224 39:0.270461 40:-0.379331 41:0.837115 42:-0.174119 43:-0.983949 44:0.00537396 45:0.115005 46:-0.0870404 
-0.07680608 1:0.442455 2:0.0888889 3:-0.386942 4:-0.13576 5:-0.851852 6:0.464286 7:-0.374083 8:-0.139357 9:-0.349046 10:-0.159734 11:-1 12:0.366328 13:-0.816831 14:0.149372 15:-0.14647 16:-0.275875 17:-0.6 18:0.25 19:-1 21:-1 23:-0.285714 25:-0.111111 26:-0.142857 27:-0.75 29:-0.0162215 30:-0.0723318 31:-0.146341 32:0.0588232 33:0.076626 34:-0.269999 35:0.448483 36:-0.114565 37:-0.901557 38:-0.409262 39:0.136629 40:-0.325209 41:0.844314 42:-0.159674 43:-0.642067 44:0.0595536 45:-0.0799906 46:-0.0605222 
-0.07680608 1:0.442455 2:0.0888889 3:-0.386942 4:-0.13576 5:-0.851852 6:0.464286 7:-0.374083 8:-0.139357 9:-0.349046 10:-0.159734 11:-1 12:0.366328 13:-0.680821 14:0.138797 15:-0.14638 16:-0.455922 17:-0.4 18:0.25 19:-1 21:-1 23:0.428571 25:-0.111111 26:-0.142857 27:-0.75 29:-0.0111577 30:0.0489711 31:-0.195122 32:-0.0352945 33:0.118897 34:-0.158947 35:0.655743 36:-0.0672548 37:-0.8647 38:-0.405262 39:0.0380456 40:-0.274624 41:0.894015 42:-0.165287 43:-0.554667 44:0.122888 45:-0.00419539 46:-0.127022 
-0.07680608 1:0.442455 2:0.0888889 3:-0.386942 4:-0.13576 5:-0.851852 6:0.464286 7:-0.374083 8:-0.139357 9:-0.349046 10:-0.159734 11:-1 12:0.366328 13:-0.861625 14:0.153794 15:-0.146471 16:-0.041195 17:-0.4 19:-1 21:-1 23:-0.285714 25:-0.555556 26:-0.142857 27:0.25 29:0.237676 30:0.0121211 31:-0.341463 32:0.105882 33:0.129592 34:-0.165766 35:0.113709 36:0.219733 37:-0.731456 38:-0.444854 39:0.172782 40:-0.329718 41:0.649603 42:-0.158721 43:-0.7926 44:0.0601814 45:-0.103047 46:-0.0801184 
-0.07680608 1:0.442455 2:0.0888889 3:-0.386942 4:-0.13576 5:-0.851852 6:0.464286 7:-0.374083 8:-0.139357 9:-0.349046 10:-0.159734 11:-1 12:0.366328 13:-0.999786 14:0.164192 15:-0.146618 16:-0.114064 17:-0.8 18:0.25 19:-1 21:-1 23:0.285714 25:-0.555556 26:-0.142857 29:-0.0975349 30:-0.0647719 31:-0.121951 32:0.0823527 33:0.147374 34:-0.096627 35:0.234122 36:-0.176009 37:-0.796951 38:-0.418113 39:0.277819 40:-0.380994 41:0.876283 42:-0.173666 43:-1 45:0.266195 46:-0.106895 
-0.07680608 1:0.442455 2:0.0888889 3:-0.386942 4:-0.13576 5:-0.851852 6:0.464286 7:-0.374083 8:-0.139357 9:-0.349046 10:-0.159734 11:-1 12:0.366328 13:-0.999944 14:0.164064 15:-0.147039 16:-0.619711 17:-0.8 19:-1 21:-1 23:0.428571 25:-0.333333 26:-0.142857 27:-0.25 29:-0.2764 30:0.165944 31:0.0487811 32:0.0117644 33:0.592912 34:-0.187641 35:0.815632 36:-0.114853 37:-0.862718 38:-0.423673 39:0.277819 40:-0.380994 41:0.801101 42:-0.171798 43:-1 45:0.293319 46:-0.16296 
-0.07680608 1:-0.16624 2:0.419444 3:-0.450172 4:-0.0963597 5:1 6:-0.875 7:-0.486553 8:-0.0689127 9:-0.207632 10:-0.247815 11:-0.907366 12:0.303044 13:-0.999255 14:0.163722 15:-0.146774 16:-0.188639 17:0.2 19:-1 21:-1 23:0.571429 25:-1 26:-0.142857 27:-0.5 29:0.172376 30:-0.656028 31:0.219512 32:-0.129412 33:0.805836 34:-0.156061 35:-0.186094 36:-0.164675 37:-0.678611 38:-0.483699 39:0.39397 40:-0.474468 41:0.846312 42:-0.17749 43:-1 45:0.481371 46:-0.226762 
-0.07680608 1:-0.084399 2:0.375 3:-0.147766 4:-0.284797 5:0.82716 6:-0.75 7:-0.261614 8:-0.209801 9:0.10101 10:-0.440056 11:-0.685581 12:0.151528 13:-1 14:0.173918 15:-0.146604 16:0.126604 17:-0.4 18:0.25 19:-1 21:-1 23:0.857143 24:-0.2 25:-0.555556 26:-0.142857 27:-1 29:-0.0715925 30:0.0311213 31:0.560976 32:-0.458824 33:-0.185316 34:0.149452 35:-0.0939633 36:0.406118 37:-0.643692 38:-0.495774 39:0.478007 40:-0.549246 41:0.89278 42:-0.172673 43:-1 44:0.0392865 45:0.558818 46:-0.498812 
-0.07680608 1:-0.084399 2:0.375 3:-0.147766 4:-0.284797 5:0.82716 6:-0.75 7:-0.261614 8:-0.209801 9:0.10101 10:-0.440056 11:-0.685581 12:0.151528 13:-0.949734 14:0.133508 15:-0.146474 16:-0.200727 17:-0.2 18:0.25 19:-0.333333 21:-1 23:0.142857 25:-1 26:-0.142857 27:-1 29:-0.0465687 30:0.102614 31:0.121951 32:-0.129412 33:-0.330716 34:-0.0707129 35:0.654414 36:-0.0936044 37:-0.672702 38:-0.492166 39:0.410538 40:-0.494543 41:0.817032 42:-0.07917 43:-0.87904 44:-0.0914191 45:0.314652 46:-0.257715 
-0.07680608 1:-0.084399 2:0.375 3:-0.147766 4:-0.284797 5:0.82716 6:-0.75 7:-0.261614 8:-0.209801 9:0.10101 10:-0.440056 11:-0.685581 12:0.151528 13:-0.518099 14:-0.0461425 15:-0.146122 16:0.0295975 17:-0.2 18:0.25 19:-0.333333 21:-1 23:-0.714286 25:-0.555556 26:-0.142857 27:-1 29:0.491967 30:0.559266 31:-0.121951 32:-0.2 33:0.196435 34:-0.117295 35:0.157583 36:-0.113491 37:-0.828125 38:-0.428586 39:0.124743 40:-0.342912 41:0.125019 42:0.313756 43:-0.505793 44:-0.0517301 45:-0.138831 46:-0.140013 
-0.07680608 1:0.902813 2:-0.161111 3:0.587629 4:-0.743041 5:-0.925926 6:0.517857 7:0.418093 8:-0.635528 9:0.511785 10:-0.695911 11:-0.462869 12:-0.000620966 13:-0.269701 14:-0.23556 15:-0.145974 16:0.205186 17:-0.2 18:0.25 19:-1 21:-1 23:-0.142857 25:-0.555556 26:-0.428571 27:-0.5 29:-0.0894224 30:0.00160337 31:-0.121951 32:-0.176471 33:-0.364541 34:0.637675 35:0.254341 36:-0.120184 37:-0.676407 38:-0.452929 39:0.263716 40:-0.452117 41:0.846375 42:-0.126873 43:-0.175594 44:-0.270504 45:0.0794277 46:-0.215979 
-0.07680608 1:0.902813 2:-0.161111 3:0.587629 4:-0.743041 5:-0.925926 6:0.517857 7:0.418093 8:-0.635528 9:0.511785 10:-0.695911 11:-0.462869 12:-0.000620966 13:-0.835602 14:0.0986146 15:-0.146118 16:0.146084 17:-0.2 18:0.25 19:-1 21:-1 23:0.142857 24:-0.4 25:-0.111111 26:-0.142857 27:-0.25 29:-0.476229 30:-0.0532953 31:0.365854 32:-0.22353 33:0.078069 34:0.082411 35:0.529634 36:-0.111957 37:-0.839 38:-0.43932 39:0.778347 40:-0.811729 41:0.787272 42:-0.14539 43:-0.782411 44:-0.0465118 45:0.410629 46:-0.414753 
-0.07680608 1:0.902813 2:-0.161111 3:0.587629 4:-0.743041 5:-0.925926 6:0.517857 7:0.418093 8:-0.635528 9:0.511785 10:-0.695911 11:-0.462869 12:-0.000620966 13:-0.194563 14:-0.289421 15:-0.145755 16:0.731054 17:-0.8 18:0.25 21:-1 25:-0.777778 26:-0.142857 27:-1 29:0.153271 30:-0.0402618 31:-0.0975611 32:-0.0588238 33:-0.384149 34:0.306405 35:0.545119 36:-0.122025 37:-0.758467 38:-0.448218 39:0.191202 40:-0.387532 41:0.365712 42:0.14961 43:-0.13163 44:-0.618331 45:-0.0864742 46:-0.0893722 
-0.07680608 1:0.902813 2:-0.161111 3:0.587629 4:-0.743041 5:-0.925926 6:0.517857 7:0.418093 8:-0.635528 9:0.511785 10:-0.695911 11:-0.462869 12:-0.000620966 13:-1 14:0.208364 15:-0.146073 16:0.279684 17:-0.4 18:0.25 19:-1 21:-1 23:0.857143 24:-0.4 25:-0.777778 26:-0.142857 28:-1 29:-0.850728 30:0.401974 31:0.609757 32:-0.576471 33:0.387798 34:-0.224676 35:0.720996 36:-0.00613673 37:-0.833633 38:-0.437752 39:1 40:-0.985295 41:0.850466 42:-0.17561 43:-1 44:0.218683 45:0.857242 46:-0.726194 
-0.07680608 1:0.902813 2:-0.161111 3:0.587629 4:-0.743041 5:-0.925926 6:0.517857 7:0.418093 8:-0.635528 9:0.511785 10:-0.695911 11:-0.462869 12:-0.000620966 13:-0.165389 14:-0.168512 15:-0.145946 16:0.0944875 17:-0.4 19:-1 21:-1 23:-0.571429 25:-0.555556 26:-0.142857 27:-0.25 29:-0.144892 30:0.298178 31:2.77441e-07 32:-0.317648 33:-0.392891 34:0.698106 35:0.506589 36:-0.106108 37:-0.720002 38:-0.434396 39:0.198791 40:-0.466151 41:0.683375 42:0.0172487 43:-0.13626 44:0.134947 45:0.0414096 46:-0.368219 
-0.07680608 1:0.902813 2:-0.161111 3:0.587629 4:-0.743041 5:-0.925926 6:0.517857 7:0.418093 8:-0.635528 9:0.511785 10:-0.695911 11:-0.462869 12:-0.000620966 13:0.205376 14:-0.313667 15:-0.146066 16:-0.102926 17:-0.4 19:-1 21:-1 23:-0.857143 25:-0.333333 26:-0.428571 27:-0.25 29:0.479387 30:0.0431828 31:-0.365853 32:-0.22353 33:-0.118684 34:0.608876 35:0.66544 36:-0.117595 37:-0.632973 38:-0.448519 39:-0.167802 40:-0.236624 41:0.592141 42:0.0158854 43:0.20722 44:0.23251 45:-0.322275 46:-0.300736 
-0.07680608 1:0.902813 2:-0.161111 3:0.587629 4:-0.743041 5:-0.925926 6:0.517857 7:0.418093 8:-0.635528 9:0.511785 10:-0.695911 11:-0.462869 12:-0.000620966 13:-0.954891 14:0.188066 15:-0.146565 16:-0.50242 17:-0.2 19:0.333333 21:-0.333333 23:-0.142857 24:-0.4 25:-0.111111 26:-0.428571 27:-0.5 28:-1 29:0.0641203 30:0.491427 31:0.609756 32:-0.717647 33:0.0405093 34:-0.0346745 35:0.168089 36:0.124806 37:-0.679963 38:-0.472075 39:0.962759 40:-0.949949 41:0.868 42:-0.159766 43:-0.949513 44:0.170239 45:0.735128 46:-0.808007 
-0.07680608 1:0.902813 2:-0.161111 3:0.587629 4:-0.743041 5:-0.925926 6:0.517857 7:0.418093 8:-0.635528 9:0.511785 10:-0.695911 11:-0.462869 12:-0.000620966 13:-0.957167 14:0.197283 15:-0.146301 16:-0.0971534 17:0.2 19:-0.666667 20:-0.333333 21:-0.333333 23:0.571429 24:-0.4 25:-0.555556 26:-0.428571 27:-0.75 29:-0.357012 30:0.376227 31:0.487805 32:-0.529412 33:0.0508223 34:0.356764 35:0.562864 36:0.311094 37:-0.818231 38:-0.423512 39:0.950496 40:-0.953158 41:0.874272 42:-0.206689 43:-0.937973 44:0.181462 45:0.676931 46:-0.747137 
-0.07680608 1:0.902813 2:-0.161111 3:0.587629 4:-0.743041 5:-0.925926 6:0.517857 7:0.418093 8:-0.635528 9:0.511785 10:-0.695911 11:-0.462869 12:-0.000620966 13:-0.0196397 14:-0.36402 15:-0.145809 16:0.415564 17:-0.8 18:0.25 19:-1 21:-1 23:-0.142857 24:-0.2 25:-0.555556 26:-0.142857 29:0.140865 30:-0.0885561 31:-0.195121 32:-0.0588239 33:-0.173093 34:0.530661 35:0.417055 36:-0.117634 37:-0.700204 38:-0.447726 39:-0.00891065 40:-0.250616 41:0.772326 42:-0.156209 43:-0.0341285 44:-0.426555 45:-0.130762 46:-0.102304 
-0.07680608 1:0.902813 2:-0.161111 3:0.587629 4:-0.743041 5:-0.925926 6:0.517857 7:0.418093 8:-0.635528 9:0.511785 10:-0.695911 11:-0.462869 12:-0.000620966 13:-0.602861 14:-0.00335621 15:-0.145881 16:0.271351 17:-0.8 18:0.25 19:-1 21:-1 23:0.428571 24:-0.2 25:-0.333333 26:-0.428571 27:-0.75 29:0.124004 30:-0.0871303 31:0.0487812 32:-0.0588239 33:-0.389454 34:0.194041 35:0.806744 36:-0.120664 37:-0.694586 38:-0.455518 39:0.545037 40:-0.650482 41:0.819918 42:-0.172071 43:-0.529138 44:-0.191697 45:0.191444 46:-0.278189 
-0.07680608 1:0.902813 2:-0.161111 3:0.587629 4:-0.743041 5:-0.925926 6:0.517857 7:0.418093 8:-0.635528 9:0.511785 10:-0.695911 11:-0.462869 12:-0.000620966 13:-0.841326 14:0.14136 15:-0.146065 16:0.301217 17:0.2 18:0.25 19:-1 21:-1 23:0.428571 24:-0.6 25:-1 26:-0.142857 27:-0.25 28:-0.5 29:-0.391405 30:0.40582 31:0.414635 32:-0.576471 33:0.208658 34:0.294025 35:0.0471573 36:-0.109732 37:-0.795758 38:-0.436439 39:0.868976 40:-0.912903 41:0.865476 42:-0.18205 43:-0.844161 44:0.265366 45:0.553629 46:-0.710367 
-0.07680608 1:0.539642 2:0.0361111 3:-1 4:0.246253 5:0.0123457 6:-0.160714 7:-1 8:0.25268 9:-1 10:0.245718 11:0.56197 12:-0.700754 13:-0.785416 14:0.274604 15:-0.14689 16:-0.548842 17:-0.8 18:0.25 19:-0.333333 21:-1 23:-0.285714 25:-1 26:-0.142857 27:-0.5 29:0.189213 30:-0.0915251 31:-0.560976 32:0.223529 33:-0.0312573 34:-0.309028 35:0.340042 36:-0.101793 37:-0.836838 38:-0.392345 39:-0.172258 40:-0.138866 41:0.916113 42:-0.153416 43:-0.248689 44:0.0130392 45:-0.414273 46:0.153705 
-0.07680608 1:0.539642 2:0.0361111 3:-1 4:0.246253 5:0.0123457 6:-0.160714 7:-1 8:0.25268 9:-1 10:0.245718 11:0.56197 12:-0.700754 13:-1 14:0.164108 15:-0.147629 16:-0.537322 18:0.25 19:-1 21:-1 24:0.2 25:-0.555556 26:0.142857 27:-0.5 29:-0.387209 30:-0.295897 31:-0.0243901 32:0.341176 33:0.603141 34:0.111787 35:0.332926 36:-0.081235 37:-0.822109 38:-0.299225 39:0.046609 40:-0.194925 41:0.844115 42:-0.173191 43:-1 45:0.0339622 46:0.261538 
-0.07680608 1:0.539642 2:0.0361111 3:-1 4:0.246253 5:0.0123457 6:-0.160714 7:-1 8:0.25268 9:-1 10:0.245718 11:0.56197 12:-0.700754 13:-0.928168 14:0.18192 15:-0.147297 16:-0.556602 17:-0.8 18:0.5 19:-1 21:-1 23:0.285714 25:-0.555556 26:-0.142857 27:-0.75 29:0.0850174 30:-0.114398 31:-0.365854 32:0.341176 33:0.463257 34:-0.171327 35:0.494388 36:-0.154473 37:-0.801036 38:-0.417378 39:-0.00454269 40:-0.187467 41:0.840135 42:-0.165661 43:-0.764911 44:-0.0579975 45:-0.347771 46:0.227548 
-0.07680608 1:0.539642 2:0.0361111 3:-1 4:0.246253 5:0.0123457 6:-0.160714 7:-1 8:0.25268 9:-1 10:0.245718 11:0.56197 12:-0.700754 13:-0.723298 14:0.286158 15:-0.146847 16:-0.699007 17:-1 18:0.25 19:-1 21:-1 23:0.142857 25:-0.777778 26:-0.142857 27:-0.75 29:-0.0140059 30:-0.110557 31:-0.536585 32:0.247059 33:0.36034 34:-0.403452 35:0.800864 36:-0.112264 37:-0.847234 38:-0.400664 39:-0.20245 40:-0.153916 41:0.885882 42:-0.147055 43:-0.0189093 44:0.101037 45:-0.421482 46:0.132344 
-0.07680608 1:0.539642 2:0.0361111 3:-1 4:0.246253 5:0.0123457 6:-0.160714 7:-1 8:0.25268 9:-1 10:0.245718 11:0.56197 12:-0.700754 13:-0.993253 14:0.180009 15:-0.147384 16:-0.375802 17:-0.8 18:0.25 19:-1 21:-0.333333 23:0.571429 24:0.4 25:-1 26:-0.142857 27:-0.75 29:0.0645605 30:-0.319017 31:-0.268292 32:0.388235 33:0.440594 34:-0.481037 35:-0.324802 36:-0.258855 37:-0.909725 38:-0.365659 39:0.0361078 40:-0.195102 41:0.867429 42:-0.136719 43:-0.950865 44:0.0526933 45:-0.110272 46:0.331534 
-0.07680608 1:0.539642 2:0.0361111 3:-1 4:0.246253 5:0.0123457 6:-0.160714 7:-1 8:0.25268 9:-1 10:0.245718 11:0.56197 12:-0.700754 13:-0.783278 14:0.203461 15:-0.146261 16:0.282478 18:0.5 19:-1 21:-1 23:-0.428571 25:-0.777778 26:0.142857 27:-1 29:0.747401 30:-0.247724 31:-0.878049 32:0.341176 33:0.520127 34:-0.49221 35:0.891773 36:-0.440253 37:-0.710191 38:-0.33708 39:-0.129726 40:-0.156331 41:0.458953 42:0.141403 43:-0.269214 44:-0.162791 45:-0.736882 46:0.204197 
-0.07680608 1:0.539642 2:0.0361111 3:-1 4:0.246253 5:0.0123457 6:-0.160714 7:-1 8:0.25268 9:-1 10:0.245718 11:0.56197 12:-0.700754 13:-0.759961 14:0.278468 15:-0.14674 16:-0.524423 17:-0.8 18:0.25 19:-1 21:-1 23:-0.285714 25:-0.555556 26:-0.142857 27:-0.5 29:0.344194 30:-0.140203 31:-0.707317 32:0.270588 33:0.301432 34:-0.47343 35:0.356138 36:-0.113491 37:-0.771223 38:-0.410255 39:-0.155062 40:-0.16734 41:0.841873 42:-0.115597 43:-0.184619 44:-0.0216354 45:-0.499771 46:0.166902 
-0.07680608 1:0.0895141 2:0.280556 3:0.0859107 4:-0.430407 5:0.358025 6:-0.410714 7:0.124694 8:-0.451761 9:0.283951 10:-0.554002 11:-0.81227 12:0.238077 13:-0.931087 14:0.148446 15:-0.146287 16:-0.0023879 17:-0.2 18:-0.25 19:-1 21:-1 23:0.142857 24:-0.4 25:-0.333333 26:-0.142857 27:-0.25 28:-0.5 29:-0.295701 30:0.381034 31:0.414635 32:-0.364706 33:0.0138992 34:-0.150449 35:0.602156 36:-0.0687314 37:-0.891265 38:-0.418425 39:-0.207725 40:-0.00854462 41:0.813677 42:-0.14499 43:-0.962665 44:0.12182 45:0.373088 46:-0.517475 
-0.07680608 1:0.0895141 2:0.280556 3:0.0859107 4:-0.430407 5:0.358025 6:-0.410714 7:0.124694 8:-0.451761 9:0.283951 10:-0.554002 11:-0.81227 12:0.238077 13:-0.962974 14:0.193026 15:-0.146311 16:0.268322 17:0.4 19:-1 21:-0.333333 23:0.714286 24:-0.6 25:-0.555556 26:-0.428571 27:-0.75 29:0.320682 30:-0.132128 31:0.0487799 32:-0.176471 33:0.458971 34:-0.00414415 35:0.353573 36:-0.0746956 37:-0.77116 38:-0.432893 39:0.598274 40:-0.667776 41:0.763017 42:-0.184271 43:-0.944021 44:0.110731 45:0.648184 46:-0.610159 
-0.07680608 1:1 2:-0.213889 3:0.285223 4:-0.554604 5:-0.925926 6:0.517857 7:-0.0904645 8:-0.316998 9:0.0426487 10:-0.403705 11:-0.578179 12:0.0781551 13:-0.373254 14:-0.0881977 15:-0.145963 16:-0.00756175 17:-0.8 18:0.25 19:-0.666667 21:-0.333333 23:0.285714 24:-0.2 25:-0.777778 26:-0.142857 27:-1 29:0.185323 30:-0.0808596 31:-0.365853 32:0.0352938 33:-0.0716605 34:0.232492 35:0.227815 36:-0.115773 37:-0.763724 38:-0.430883 39:0.105045 40:-0.354129 41:0.894809 42:-0.187679 43:-0.199803 44:-0.0819509 45:-0.142693 46:-0.122939 
-0.06795525917753022 1:1 2:-0.213889 3:0.285223 4:-0.554604 5:-0.925926 6:0.517857 7:-0.0904645 8:-0.316998 9:0.0426487 10:-0.403705 11:-0.578179 12:0.0781551 13:-0.771592 14:0.0756351 15:-0.146285 16:-0.096875 17:-0.6 18:0.25 19:-0.333333 21:-0.333333 25:-0.555556 26:-0.142857 27:-0.75 29:-0.0174663 30:0.0887121 31:0.0243907 32:-0.105883 33:-0.44887 34:0.163353 35:0.614587 36:-0.0461981 37:-0.763838 38:-0.452738 39:0.436115 40:-0.557605 41:0.902912 42:-0.176585 43:-0.61926 44:-0.140276 45:0.12893 46:-0.170933 
-0.07680608 1:1 2:-0.213889 3:0.285223 4:-0.554604 5:-0.925926 6:0.517857 7:-0.0904645 8:-0.316998 9:0.0426487 10:-0.403705 11:-0.578179 12:0.0781551 13:-0.717185 14:0.112538 15:-0.146244 16:-0.141062 17:-0.8 18:0.25 19:0.333333 20:-0.666667 21:0.333333 23:-0.142857 25:-0.777778 26:-0.142857 27:-0.75 29:0.35297 30:0.0214066 31:-0.0487807 32:-0.341176 33:0.0903767 34:0.121125 35:0.747492 36:-0.107431 37:-0.768029 38:-0.426999 39:0.498532 40:-0.642802 41:0.42107 42:0.162845 43:-0.687865 44:0.208825 45:0.00275354 46:-0.334618 
-0.07680608 1:1 2:-0.213889 3:0.285223 4:-0.554604 5:-0.925926 6:0.517857 7:-0.0904645 8:-0.316998 9:0.0426487 10:-0.403705 11:-0.578179 12:0.0781551 13:-0.636004 14:0.00267344 15:-0.146339 16:-0.175654 17:0.2 18:-0.25 19:-1 21:-0.333333 23:-0.285714 25:-0.777778 26:-0.142857 27:-0.75 28:-0.5 29:0.134765 30:0.0356289 31:-2.77441e-07 32:-0.0588235 33:-0.354186 34:0.138121 35:-0.0851977 36:0.503941 37:-0.718213 38:-0.456623 39:0.361035 40:-0.515329 41:0.574277 42:-0.0409641 43:-0.567635 44:0.0284876 45:0.0633095 46:-0.252051 
-0.07680608 1:1 2:-0.213889 3:0.285223 4:-0.554604 5:-0.925926 6:0.517857 7:-0.0904645 8:-0.316998 9:0.0426487 10:-0.403705 11:-0.578179 12:0.0781551 13:-0.450449 14:-0.0583337 15:-0.14618 16:-0.0361102 17:-0.6 18:0.25 19:-0.333333 21:-1 24:-0.4 25:-0.555556 26:-0.142857 27:-0.5 29:0.0296441 30:-0.0365653 31:-0.268292 32:0.0117644 33:-0.222706 34:0.0462676 35:0.218163 36:-0.076364 37:-0.743276 38:-0.4545 39:0.083435 40:-0.319433 41:0.906457 42:-0.182981 43:-0.244976 44:-0.249751 45:-0.0882125 46:-0.078637 
-0.07680608 1:1 2:-0.213889 3:0.285223 4:-0.554604 5:-0.925926 6:0.517857 7:-0.0904645 8:-0.316998 9:0.0426487 10:-0.403705 11:-0.578179 12:0.0781551 13:-0.955969 14:0.143853 15:-0.146508 16:-0.0810347 18:0.25 19:-1 21:-1 25:-0.111111 26:-0.142857 27:-0.25 29:-0.414767 30:0.310464 31:0.317073 32:-0.388236 33:-0.0127533 34:0.337617 35:0.406334 36:-0.0682136 37:-0.912051 38:-0.378545 39:0.715657 40:-0.740092 41:0.826337 42:-0.186039 43:-0.929015 44:0.0126904 45:0.569054 46:-0.352712 
-0.07680608 1:1 2:-0.213889 3:0.285223 4:-0.554604 5:-0.925926 6:0.517857 7:-0.0904645 8:-0.316998 9:0.0426487 10:-0.403705 11:-0.578179 12:0.0781551 13:-0.89403 14:0.159075 15:-0.146696 16:-0.75187 17:-0.2 19:-1 21:-0.333333 23:0.857143 24:-0.4 25:-0.777778 26:-0.142857 27:-1 29:-0.318557 30:0.322407 31:0.195122 32:-0.2 33:0.120424 34:0.0752767 35:-0.0786922 36:0.113069 37:-0.814096 38:-0.426167 39:0.633996 40:-0.687856 41:0.829087 42:-0.193681 43:-0.864483 44:0.00567982 45:0.457278 46:-0.426859 
-0.07680608 1:1 2:-0.213889 3:0.285223 4:-0.554604 5:-0.925926 6:0.517857 7:-0.0904645 8:-0.316998 9:0.0426487 10:-0.403705 11:-0.578179 12:0.0781551 13:-1 14:0.194667 15:-0.14654 16:-0.256732 17:-0.6 18:0.25 19:0.333333 20:-0.333333 21:-0.333333 23:0.571429 24:-0.4 25:-0.333333 26:-0.142857 27:-0.75 29:-0.112238 30:0.307905 31:0.365854 32:-0.364706 33:0.192615 34:-0.122541 35:0.345189 36:0.0894813 37:-0.830522 38:-0.424199 39:0.781677 40:-0.793222 41:0.864412 42:-0.173926 43:-1 44:0.115982 45:0.622778 46:-0.542007 
-0.07680608 1:1 2:-0.213889 3:0.285223 4:-0.554604 5:-0.925926 6:0.517857 7:-0.0904645 8:-0.316998 9:0.0426487 10:-0.403705 11:-0.578179 12:0.0781551 13:-0.585249 14:-0.0214808 15:-0.146227 16:-0.294516 17:-0.8 18:0.25 19:-1 21:-0.333333 23:0.428571 25:-1 26:-0.142857 27:-0.5 29:-0.314185 30:0.0327489 31:0.0731709 32:-0.0823533 33:-0.714164 34:0.556156 35:-0.136493 36:-0.07366 37:-0.86116 38:-0.420463 39:0.285916 40:-0.455132 41:0.974336 42:-0.205453 43:-0.425665 44:-0.14257 45:0.198637 46:-0.225987 
-0.07680608 1:1 2:-0.213889 3:0.285223 4:-0.554604 5:-0.925926 6:0.517857 7:-0.0904645 8:-0.316998 9:0.0426487 10:-0.403705 11:-0.578179 12:0.0781551 13:-0.634258 14:0.0475397 15:-0.146178 16:-0.0226218 17:-0.6 18:0.25 19:-0.333333 21:-1 25:-0.777778 26:-0.142857 27:-0.75 29:0.371978 30:-0.266211 31:-0.0243903 32:-0.152941 33:-0.342939 34:0.112627 35:0.715987 36:0.0510691 37:-0.783892 38:-0.430757 39:0.388256 40:-0.531843 41:0.158482 42:0.524917 43:-0.612807 44:0.00662422 45:0.0488447 46:-0.212871 
-0.07680608 1:1 2:-0.213889 3:0.285223 4:-0.554604 5:-0.925926 6:0.517857 7:-0.0904645 8:-0.316998 9:0.0426487 10:-0.403705 11:-0.578179 12:0.0781551 13:-0.991791 14:0.207838 15:-0.146279 16:-0.0322847 17:-0.4 18:0.25 19:-0.666667 21:-1 23:0.428571 24:-0.4 25:-0.555556 26:-0.142857 27:-0.5 28:-0.5 29:-0.136422 30:-0.0877315 31:0.195123 32:-0.247059 33:0.408297 34:-0.0994072 35:0.795932 36:-0.0303577 37:-0.830617 38:-0.423015 39:0.759671 40:-0.788542 41:0.849405 42:-0.17216 43:-0.98064 44:0.171326 45:0.380614 46:-0.420403 
-0.07680608 1:1 2:-0.213889 3:0.285223 4:-0.554604 5:-0.925926 6:0.517857 7:-0.0904645 8:-0.316998 9:0.0426487 10:-0.403705 11:-0.578179 12:0.0781551 13:-0.658701 14:0.0102713 15:-0.146362 16:0.153994 17:0.2 19:-1 21:-0.333333 23:0.142857 25:-0.333333 26:-0.142857 27:-1 29:0.279633 30:-0.142156 31:0.0731707 32:-0.105883 33:0.0806154 34:0.204952 35:0.179451 36:-0.0830377 37:-0.910883 38:-0.428012 39:0.367003 40:-0.50665 41:0.843274 42:-0.210835 43:-0.632167 44:-0.0449583 45:0.282192 46:-0.286784 
-0.05626740104895347 1:1 2:-0.213889 3:0.285223 4:-0.554604 5:-0.925926 6:0.517857 7:-0.0904645 8:-0.316998 9:0.0426487 10:-0.403705 11:-0.578179 12:0.0781551 13:-0.599588 14:-0.0257927 15:-0.146132 16:-0.300531 17:-0.2 19:-0.666667 21:-1 23:-0.285714 25:-0.333333 26:-0.142857 27:-0.75 29:0.320834 30:-0.0487511 31:-0.170731 32:-0.0352944 33:-0.159809 34:0.211352 35:0.742635 36:-0.0768818 37:-0.673537 38:-0.452094 39:0.281494 40:-0.453953 41:0.890349 42:-0.202627 43:-0.399854 44:-0.176053 45:-0.111885 46:-0.170008 
-0.07680608 1:1 2:-0.213889 3:0.285223 4:-0.554604 5:-0.925926 6:0.517857 7:-0.0904645 8:-0.316998 9:0.0426487 10:-0.403705 11:-0.578179 12:0.0781551 13:-0.775657 14:0.188289 15:-0.146335 16:-0.349225 18:0.25 21:-1 23:-0.285714 24:-0.2 25:-0.333333 26:-0.142857 27:-1 29:0.135205 30:0.256025 31:0.317073 32:-0.388236 33:-0.536382 34:0.0460578 35:0.644014 36:0.0279797 37:-0.871389 38:-0.411283 39:0.557347 40:-0.624806 41:0.782898 42:-0.146598 43:-0.878716 44:0.0129265 45:0.182305 46:-0.362906 
-0.07680608 1:1 2:-0.213889 3:0.285223 4:-0.554604 5:-0.925926 6:0.517857 7:-0.0904645 8:-0.316998 9:0.0426487 10:-0.403705 11:-0.578179 12:0.0781551 13:-0.999911 14:0.182297 15:-0.146786 16:-0.459582 17:-0.2 18:-0.25 19:-1 21:-0.333333 23:0.714286 24:-0.2 25:-0.333333 26:-0.428571 27:-0.5 29:-0.264191 30:0.390891 31:0.439024 32:-0.317647 33:0.41687 34:-0.0980958 35:0.00247392 36:0.0759421 37:-0.818908 38:-0.432768 39:0.781677 40:-0.786481 41:0.865278 42:-0.186305 43:-1 44:0.026191 45:0.607122 46:-0.458713 
-0.03804479024645912 1:1 2:-0.213889 3:0.285223 4:-0.554604 5:-0.925926 6:0.517857 7:-0.0904645 8:-0.316998 9:0.0426487 10:-0.403705 11:-0.578179 12:0.0781551 13:-0.777192 14:0.0905594 15:-0.14646 16:-0.39733 17:-0.2 18:0.25 19:-1 21:-0.333333 23:-0.142857 25:-0.555556 26:-0.142857 27:-0.75 29:-0.0121649 30:0.332164 31:0.243902 32:-0.317647 33:-0.382918 34:0.422704 35:0.0336729 36:0.12262 37:-0.766933 38:-0.449414 39:0.54133 40:-0.631788 41:0.83666 42:-0.211753 43:-0.767684 44:0.0129614 45:0.259743 46:-0.319986 
-0.07680608 1:1 2:-0.213889 3:0.285223 4:-0.554604 5:-0.925926 6:0.517857 7:-0.0904645 8:-0.316998 9:0.0426487 10:-0.403705 11:-0.578179 12:0.0781551 13:-0.931149 14:0.17337 15:-0.146236 16:-0.175124 17:-0.4 18:0.25 19:-1 21:-1 24:-0.2 25:-0.333333 26:-0.142857 28:-0.5 29:-0.16226 30:0.313444 31:0.243902 32:-0.364706 33:-0.0964456 34:0.085506 35:0.133119 36:0.101582 37:-0.633657 38:-0.463455 39:0.722993 40:-0.756998 41:0.783687 42:-0.187551 43:-0.892241 44:0.0658103 45:0.354923 46:-0.477665 
-0.07680608 1:1 2:-0.213889 3:0.285223 4:-0.554604 5:-0.925926 6:0.517857 7:-0.0904645 8:-0.316998 9:0.0426487 10:-0.403705 11:-0.578179 12:0.0781551 13:-0.969097 14:0.175195 15:-0.146436 16:-0.326742 17:0.4 18:0.25 19:-1 21:-1 24:-0.2 25:-0.333333 26:-0.142857 27:-0.5 29:-0.0551462 30:-0.0228549 31:0.341463 32:-0.247059 33:0.58069 34:-0.0189897 35:0.210009 36:-0.102522 37:-0.813689 38:-0.443152 39:0.755032 40:-0.776093 41:0.811181 42:-0.1539 43:-0.98064 44:0.038487 45:0.446951 46:-0.435956 
-0.07680608 1:-0.473146 2:0.586111 3:0.37457 4:-0.610278 5:0.580247 6:-0.571429 7:0.0709046 8:-0.41807 9:0.545455 10:-0.716882 11:-0.606592 12:0.0975659 13:0.173825 14:-0.442951 15:-0.145815 16:0.148787 17:-0.4 18:0.25 19:-0.666667 21:-1 23:-0.285714 25:-0.777778 26:-0.142857 27:-0.5 29:0.392207 30:-0.284226 31:-0.414634 32:-0.0352941 33:-0.310048 34:0.301212 35:0.49535 36:-0.117384 37:-0.862015 38:-0.383744 39:-0.0426416 40:-0.274367 41:0.0148634 42:0.665593 43:0.235871 44:-0.417989 45:-0.217597 46:-0.0736281 
-0.07680608 1:-0.473146 2:0.586111 3:0.37457 4:-0.610278 5:0.580247 6:-0.571429 7:0.0709046 8:-0.41807 9:0.545455 10:-0.716882 11:-0.606592 12:0.0975659 13:-0.0207167 14:-0.349846 15:-0.145962 16:0.238861 17:-0.6 18:0.25 19:-0.666667 21:-0.333333 25:-0.777778 26:-0.142857 27:-1 29:0.628265 30:-0.443061 31:-0.341464 32:0.0588233 33:-0.0523077 34:0.0163668 35:0.551059 36:-0.107796 37:-0.879866 38:-0.399152 39:0.0570462 40:-0.311394 41:0.142858 42:0.294581 43:0.176167 44:-0.680226 45:-0.110458 46:0.0032158 
-0.07680608 1:-0.473146 2:0.586111 3:0.37457 4:-0.610278 5:0.580247 6:-0.571429 7:0.0709046 8:-0.41807 9:0.545455 10:-0.716882 11:-0.606592 12:0.0975659 13:-0.0860075 14:-0.311219 15:-0.145939 16:0.253247 19:-0.333333 21:-1 23:-0.571429 24:-0.2 25:-0.555556 26:-0.142857 27:-1 29:0.717561 30:-0.14043 31:-0.195122 32:-0.0352941 33:-0.130822 34:0.101401 35:0.756929 36:-0.0842075 37:-0.639753 38:-0.472535 39:0.118627 40:-0.363885 41:0.135297 42:-0.0197803 43:-0.0417919 44:-0.427645 45:-0.154735 46:-0.162912 
-0.07680608 1:0.836317 2:-0.125 3:0.285223 4:-0.554604 5:-1 6:0.571429 7:-0.0904645 8:-0.316998 9:0.178451 10:-0.488291 11:-0.360602 12:-0.0704858 13:-0.405623 14:-0.135826 15:-0.145962 16:0.514767 17:-0.4 18:0.25 19:-1 21:-1 23:-0.142857 24:-0.2 25:-0.333333 26:-0.142857 27:-0.5 29:-0.0388007 30:-0.0934121 31:-0.219512 32:0.0823527 33:-0.165072 34:0.0381892 35:0.590535 36:-0.116234 37:-0.783327 38:-0.437448 39:0.0462891 40:-0.27055 41:0.933649 42:-0.186062 43:-0.184354 44:-0.39198 45:-0.0747664 46:-0.0448599 
-0.07680608 1:0.836317 2:-0.125 3:0.285223 4:-0.554604 5:-1 6:0.571429 7:-0.0904645 8:-0.316998 9:0.178451 10:-0.488291 11:-0.360602 12:-0.0704858 13:-0.558392 14:0.023506 15:-0.146195 16:-0.0280377 17:-0.2 18:0.25 19:-1 21:-1 23:-0.285714 25:-0.111111 26:-0.714286 27:-0.25 29:-0.133245 30:0.0476232 31:0.0243907 32:-0.152942 33:-0.265231 34:0.377643 35:0.379595 36:-0.115217 37:-0.772996 38:-0.396553 39:0.292695 40:-0.483959 41:0.790649 42:-0.113102 43:-0.39933 44:-0.00648203 45:0.113157 46:-0.211515 
-0.07680608 1:0.836317 2:-0.125 3:0.285223 4:-0.554604 5:-1 6:0.571429 7:-0.0904645 8:-0.316998 9:0.178451 10:-0.488291 11:-0.360602 12:-0.0704858 13:-0.278564 14:-0.139924 15:-0.146202 16:-0.108713 17:-0.6 18:0.25 19:-1 21:-0.333333 23:0.285714 25:-0.777778 26:-0.142857 27:-0.75 28:-0.5 29:0.25945 30:-0.0822618 31:-0.439024 32:0.0588232 33:0.00320424 34:-0.0713948 35:0.287556 36:-0.108313 37:-0.723482 38:-0.438948 39:-0.078232 40:-0.216116 41:0.773381 42:-0.188183 43:-0.0768677 44:-0.271553 45:-0.0393488 46:-0.0844717 
-0.07680608 1:0.836317 2:-0.125 3:0.285223 4:-0.554604 5:-1 6:0.571429 7:-0.0904645 8:-0.316998 9:0.178451 10:-0.488291 11:-0.360602 12:-0.0704858 13:-0.873529 14:0.115049 15:-0.145994 16:0.0961702 17:-1 18:0.25 19:-1 21:-1 23:0.571429 25:-0.777778 26:-0.142857 27:-0.5 29:-0.206662 30:0.143366 31:0.219513 32:-0.247059 33:-0.098695 34:0.198237 35:0.586244 36:-0.0755585 37:-0.893438 38:-0.41608 39:0.583472 40:-0.65475 41:0.918834 42:-0.186042 43:-0.829283 44:0.0928625 45:0.283591 46:-0.327641 
-0.07680608 1:0.836317 2:-0.125 3:0.285223 4:-0.554604 5:-1 6:0.571429 7:-0.0904645 8:-0.316998 9:0.178451 10:-0.488291 11:-0.360602 12:-0.0704858 13:-0.315513 14:-0.113271 15:-0.146215 16:-0.177744 17:-0.8 18:0.25 19:-0.666667 21:-1 23:-0.142857 25:-0.555556 26:-0.142857 27:-0.75 29:0.255815 30:-0.0824497 31:-0.317073 32:0.0588232 33:-0.134981 34:0.195877 35:0.813845 36:-0.117634 37:-0.761333 38:-0.427074 39:-0.0115246 40:-0.265441 41:0.904699 42:-0.198979 43:-0.0958349 44:-0.190619 45:-0.278525 46:-0.0779824 
-0.07680608 1:0.836317 2:-0.125 3:0.285223 4:-0.554604 5:-1 6:0.571429 7:-0.0904645 8:-0.316998 9:0.178451 10:-0.488291 11:-0.360602 12:-0.0704858 13:-0.22762 14:-0.215151 15:-0.145981 16:0.203548 17:-0.8 18:0.25 19:-1 21:-1 23:0.285714 25:-1 26:-0.142857 27:-0.75 29:0.00390115 30:-0.0784686 31:-0.341463 32:0.0588232 33:-0.255979 34:0.241567 35:0.0599239 36:-0.118286 37:-0.736292 38:-0.447079 39:-0.162251 40:-0.129749 41:0.946376 42:-0.200037 43:-0.019356 44:-0.434505 45:-0.134287 46:-0.0295747 
-0.07680608 1:0.836317 2:-0.125 3:0.285223 4:-0.554604 5:-1 6:0.571429 7:-0.0904645 8:-0.316998 9:0.178451 10:-0.488291 11:-0.360602 12:-0.0704858 13:-0.647599 14:0.00298533 15:-0.145979 16:0.0776235 17:-0.6 18:0.25 19:0.333333 21:-1 23:-0.428571 25:-0.555556 26:-0.142857 27:-1 29:0.602498 30:-0.174482 31:-0.219512 32:0.0352939 33:-0.326472 34:0.16052 35:0.5663 36:-0.117595 37:-0.74644 38:-0.445933 39:0.360811 40:-0.512667 41:-0.360899 42:0.429636 43:-0.456236 44:-0.142202 45:-0.128728 46:-0.097364 
-0.07680608 1:0.836317 2:-0.125 3:0.285223 4:-0.554604 5:-1 6:0.571429 7:-0.0904645 8:-0.316998 9:0.178451 10:-0.488291 11:-0.360602 12:-0.0704858 13:-0.770581 14:0.0890199 15:-0.146171 16:-0.217215 17:-0.2 18:0.25 19:-0.333333 20:-0.333333 21:-0.333333 23:-0.285714 24:-0.2 25:-1 26:-0.142857 27:-1 29:0.034938 30:0.205035 31:-0.0731705 32:-0.176471 33:-0.400233 34:0.362849 35:0.772811 36:-0.0469652 37:-0.728564 38:-0.428717 39:0.456301 40:-0.57629 41:0.612012 42:-0.213428 43:-0.62063 44:-0.0992104 45:-0.0470959 46:-0.2279 
-0.03259612498854798 1:0.836317 2:-0.125 3:0.285223 4:-0.554604 5:-1 6:0.571429 7:-0.0904645 8:-0.316998 9:0.178451 10:-0.488291 11:-0.360602 12:-0.0704858 13:-0.0682039 14:-0.242341 15:-0.146015 16:-0.0431343 17:-0.8 18:0.25 19:-1 21:-1 23:0.142857 25:-1 26:-0.142857 27:-0.75 29:0.089335 30:-0.0868785 31:-0.365853 32:0.0588232 33:-0.372138 34:0.227089 35:0.446696 36:-0.117308 37:-0.719217 38:-0.429713 39:-0.268606 40:-0.0857229 41:0.951592 42:-0.186691 43:0.151967 44:-0.352388 45:-0.305941 46:-0.00444524 
-0.07680608 1:0.836317 2:-0.125 3:0.285223 4:-0.554604 5:-1 6:0.571429 7:-0.0904645 8:-0.316998 9:0.178451 10:-0.488291 11:-0.360602 12:-0.0704858 13:-0.998016 14:0.242852 15:-0.146224 16:0.0429009 17:-0.2 19:-0.333333 20:-0.333333 21:-1 23:0.571429 24:-0.4 25:-0.333333 26:-0.428571 27:-0.75 29:-0.372332 30:0.297814 31:0.365854 32:-0.411765 33:0.147798 34:0.000944238 35:0.554739 36:-0.0152459 37:-0.709965 38:-0.461805 39:0.753566 40:-0.800302 41:0.860762 42:-0.172392 43:-0.993677 44:0.240621 45:0.470292 46:-0.482785 
-0.07680608 1:0.836317 2:-0.125 3:0.285223 4:-0.554604 5:-1 6:0.571429 7:-0.0904645 8:-0.316998 9:0.178451 10:-0.488291 11:-0.360602 12:-0.0704858 13:-0.644869 14:-0.00993177 15:-0.146185 16:-0.116328 17:-0.8 18:0.25 19:-1 21:-1 23:0.142857 24:-0.2 25:-0.333333 26:-0.142857 27:-0.5 29:-0.00383938 30:-0.0856295 31:-0.0487801 32:-0.058824 33:-0.215576 34:0.143839 35:0.797184 36:-0.118976 37:-0.75098 38:-0.421136 39:0.352418 40:-0.495168 41:0.921495 42:-0.176641 43:-0.570047 44:-0.0993446 45:0.120055 46:-0.30997 
-0.07680608 1:0.836317 2:-0.125 3:0.285223 4:-0.554604 5:-1 6:0.571429 7:-0.0904645 8:-0.316998 9:0.178451 10:-0.488291 11:-0.360602 12:-0.0704858 13:-0.821217 14:0.143808 15:-0.146147 16:-0.0093137 17:-0.4 18:0.25 19:-1 21:-1 23:0.142857 24:-0.4 25:-0.777778 26:-0.142857 27:-0.25 29:-0.23802 30:0.0553193 31:0.146342 32:-0.200001 33:0.0643183 34:0.206683 35:0.333048 36:0.0753476 37:-0.837437 38:-0.410211 39:0.530905 40:-0.632575 41:0.827993 42:-0.268055 43:-0.785024 44:0.0315033 45:0.115169 46:-0.315605 
-0.07680608 1:0.836317 2:-0.125 3:0.285223 4:-0.554604 5:-1 6:0.571429 7:-0.0904645 8:-0.316998 9:0.178451 10:-0.488291 11:-0.360602 12:-0.0704858 13:-0.80336 14:0.158095 15:-0.146396 16:-0.0735704 17:-0.6 18:0.25 19:-1 21:-1 23:0.142857 25:-0.333333 26:-0.142857 27:-0.5 29:-0.124235 30:0.182262 31:0.0731711 32:-0.270589 33:-0.197538 34:0.328647 35:0.900997 36:-0.0875635 37:-0.858265 38:-0.407409 39:0.503483 40:-0.615672 41:0.87985 42:-0.181286 43:-0.778701 44:0.158209 45:0.288666 46:-0.296184 
-0.04125512155389427 1:0.836317 2:-0.125 3:0.285223 4:-0.554604 5:-1 6:0.571429 7:-0.0904645 8:-0.316998 9:0.178451 10:-0.488291 11:-0.360602 12:-0.0704858 13:-0.637898 14:0.00598237 15:-0.146269 16:-0.0716178 18:0.25 19:-1 21:-1 25:-0.555556 26:-0.142857 27:-0.5 29:-0.0804596 30:-0.00737991 31:-0.0243901 32:-0.0823534 33:-0.222621 34:0.614961 35:0.202969 36:-0.0743312 37:-0.671185 38:-0.45907 39:0.296533 40:-0.444311 41:0.839167 42:-0.207297 43:-0.538434 44:-0.140351 45:0.0797667 46:-0.168187 
-0.07680608 1:0.836317 2:-0.125 3:0.285223 4:-0.554604 5:-1 6:0.571429 7:-0.0904645 8:-0.316998 9:0.178451 10:-0.488291 11:-0.360602 12:-0.0704858 13:-0.415135 14:-0.175394 15:-0.146236 16:-0.0551729 17:-1 18:0.25 19:-1 21:-1 23:0.285714 25:-0.555556 26:-0.142857 27:-0.5 29:0.0483939 30:-0.0869377 31:-0.195122 32:0.0823527 33:-0.390684 34:0.0620049 35:-0.101645 36:-0.117442 37:-0.765815 38:-0.426389 39:0.0625204 40:-0.274992 41:0.888334 42:-0.177795 43:-0.215969 44:-0.480051 45:-0.0336261 46:-0.0355476 
-0.07680608 1:0.836317 2:-0.125 3:0.285223 4:-0.554604 5:-1 6:0.571429 7:-0.0904645 8:-0.316998 9:0.178451 10:-0.488291 11:-0.360602 12:-0.0704858 13:-0.999996 14:0.179789 15:-0.14668 16:-0.348536 17:-0.2 18:-0.25 19:-1 21:-1 23:-0.142857 25:-0.111111 26:-0.428571 27:1 28:-1 29:-0.553982 30:0.437904 31:0.390245 32:-0.388236 33:0.357623 34:-0.161727 35:0.152696 36:0.0871608 37:-0.905209 38:-0.406646 39:0.756884 40:-0.772155 41:0.753382 42:-0.130499 43:-0.987354 44:-0.00330809 45:0.63857 46:-0.538498 
-0.07680608 1:0.836317 2:-0.125 3:0.285223 4:-0.554604 5:-1 6:0.571429 7:-0.0904645 8:-0.316998 9:0.178451 10:-0.488291 11:-0.360602 12:-0.0704858 13:-0.928256 14:0.196296 15:-0.146755 16:-0.300286 17:0.2 18:0.25 19:-1 21:-1 23:0.142857 24:-0.2 25:-0.333333 26:-0.142857 27:-0.25 28:-0.5 29:-0.483369 30:0.0728337 31:0.292683 32:-0.294118 33:0.454642 34:-0.00634737 35:0.646549 36:-0.0495925 37:-0.790351 38:-0.406664 39:0.639876 40:-0.703844 41:0.816299 42:-0.186727 43:-0.886189 44:0.153581 45:0.455632 46:-0.492703 
-0.07680608 1:0.836317 2:-0.125 3:0.285223 4:-0.554604 5:-1 6:0.571429 7:-0.0904645 8:-0.316998 9:0.178451 10:-0.488291 11:-0.360602 12:-0.0704858 13:-0.998952 14:0.166437 15:-0.146427 16:-0.230386 17:0.2 19:-1 21:-1 23:0.142857 25:-0.333333 26:-0.428571 27:-0.75 29:-0.307916 30:0.36785 31:0.268293 32:-0.341177 33:0.974578 34:-0.235482 35:0.179863 36:-0.095944 37:-0.169652 38:-0.52612 39:0.753566 40:-0.766747 41:0.838535 42:-0.168803 43:-1 44:0.0130955 45:0.409187 46:-0.332724 
-0.07680608 1:0.621483 2:-0.00833333 3:0.293471 4:-0.559743 5:-0.802469 6:0.428571 7:0.0806846 8:-0.424196 9:0.294052 10:-0.560294 11:-0.715414 12:0.171909 13:-0.845487 14:0.154744 15:-0.146125 16:0.0240076 17:-0.2 18:-0.25 19:-1 21:-0.333333 22:-0.5 23:0.285714 25:-0.555556 26:-0.142857 27:-0.75 29:0.111486 30:-0.176842 31:0.0975611 32:-0.176471 33:-0.159088 34:-0.056287 35:0.0822656 36:0.370026 37:-0.84743 38:-0.421502 39:0.518699 40:-0.633223 41:0.717597 42:-0.00312369 43:-0.813667 44:0.321429 45:0.312871 46:-0.428268 
-0.07680608 1:0.621483 2:-0.00833333 3:0.293471 4:-0.559743 5:-0.802469 6:0.428571 7:0.0806846 8:-0.424196 9:0.294052 10:-0.560294 11:-0.715414 12:0.171909 13:0.578843 14:-0.479029 15:-0.145738 16:0.0358287 17:-0.2 19:-1 21:-1 23:-0.857143 25:-1 26:-0.142857 27:-0.75 29:0.828919 30:-0.0765574 31:-0.951219 32:0.105882 33:0.325878 34:0.0845093 35:1 36:-0.117595 37:-0.562919 38:-0.398867 39:-0.613571 40:0.0649582 41:0.665671 42:-0.0757054 43:0.819256 44:-0.151528 45:-0.992219 46:0.0837988 
-0.07680608 1:-0.104859 2:0.386111 3:-0.193127 4:-0.256531 5:0.654321 6:-0.625 7:-0.344743 8:-0.157734 9:-0.131313 10:-0.295351 11:-0.695793 12:0.158505 13:-0.681694 14:0.0653526 15:-0.146321 16:-0.0862099 17:-0.2 18:0.25 19:-1 21:-1 23:-0.571429 25:0.111111 26:-0.142857 27:-0.75 29:0.164239 30:0.159112 31:-0.292683 32:0.0352939 33:0.0644881 34:-0.144416 35:0.600034 36:0.0361492 37:-0.935196 38:-0.370571 39:0.00280004 40:-0.232124 41:0.542674 42:0.0389171 43:-0.270767 44:-0.309849 45:-0.245717 46:0.0185384 
-0.07680608 1:-0.104859 2:0.386111 3:-0.193127 4:-0.256531 5:0.654321 6:-0.625 7:-0.344743 8:-0.157734 9:-0.131313 10:-0.295351 11:-0.695793 12:0.158505 13:-0.978783 14:0.151669 15:-0.146716 16:-0.166407 17:-0.2 18:0.25 19:-1 21:-1 25:0.111111 26:-0.142857 27:-0.5 28:-0.5 29:-0.694704 30:0.461242 31:0.390244 32:-0.247059 33:0.42035 34:-0.009285 35:0.565506 36:-0.107681 37:-0.817675 38:-0.438128 39:0.184295 40:-0.306693 41:0.806854 42:-0.132731 43:-0.951109 44:-0.0372234 45:0.365954 46:-0.241268 
-0.07680608 1:-0.104859 2:0.386111 3:-0.193127 4:-0.256531 5:0.654321 6:-0.625 7:-0.344743 8:-0.157734 9:-0.131313 10:-0.295351 11:-0.695793 12:0.158505 13:-0.995724 14:0.176079 15:-0.14661 16:-0.0122413 17:-0.4 19:-1 21:-0.333333 23:0.714286 24:-0.2 25:-0.555556 26:-0.142857 27:-0.25 29:-0.291496 30:0.347915 31:0.341463 32:-0.317647 33:0.436138 34:-0.224886 35:0.370386 36:0.253696 37:-0.820475 38:-0.447171 39:0.201969 40:-0.327657 41:0.875143 42:-0.169864 43:-1 44:0.129077 45:0.610545 46:-0.430504 
-0.07680608 1:-0.104859 2:0.386111 3:-0.193127 4:-0.256531 5:0.654321 6:-0.625 7:-0.344743 8:-0.157734 9:-0.131313 10:-0.295351 11:-0.695793 12:0.158505 13:-0.942705 14:0.147225 15:-0.146397 16:-0.106505 17:-0.8 18:0.25 19:-1 21:-0.333333 22:-0.5 25:0.111111 26:-0.428571 27:-0.5 29:-0.179932 30:0.126791 31:0.0487809 32:-0.176471 33:0.442844 34:-0.0211404 35:0.385444 36:-0.104209 37:-0.785245 38:-0.452064 39:0.178263 40:-0.317247 41:0.802935 42:-0.128493 43:-0.87782 44:0.077245 45:0.161601 46:-0.213245 
-0.07680608 1:-0.104859 2:0.386111 3:-0.193127 4:-0.256531 5:0.654321 6:-0.625 7:-0.344743 8:-0.157734 9:-0.131313 10:-0.295351 11:-0.695793 12:0.158505 13:-0.996888 14:0.201025 15:-0.146654 16:-0.269979 17:0.4 19:-1 21:-0.333333 23:0.142857 24:-0.4 25:-0.333333 26:-0.142857 27:-0.75 29:-0.327715 30:0.340611 31:0.292682 32:-0.2 33:0.80104 34:-0.282012 35:0.490387 36:-0.0131364 37:-0.707563 38:-0.442809 39:0.200073 40:-0.332876 41:0.76218 42:-0.165844 43:-0.978907 44:0.0250239 45:0.268636 46:-0.288722 
-0.07680608 1:-0.104859 2:0.386111 3:-0.193127 4:-0.256531 5:0.654321 6:-0.625 7:-0.344743 8:-0.157734 9:-0.131313 10:-0.295351 11:-0.695793 12:0.158505 13:-0.922372 14:0.119072 15:-0.146403 16:0.186666 17:0.2 19:-1 21:-1 24:-0.2 25:-0.333333 26:-0.142857 27:-1 29:-0.324151 30:0.174958 31:0.0731707 32:-0.0352942 33:0.291374 34:-0.286209 35:0.838004 36:-0.393096 37:-0.731405 38:-0.448114 39:0.146094 40:-0.286544 41:0.66209 42:-0.210132 43:-0.869608 44:-0.0512713 45:0.0941907 46:-0.177443 
-0.07680608 1:0.355499 2:0.136111 3:-0.424055 4:-0.112634 5:-0.234568 6:0.0178571 7:-0.359413 8:-0.148545 9:-0.34119 10:-0.164628 11:1 12:-1 13:-1 14:0.164108 15:-0.146744 16:-0.237412 17:-0.2 18:0.25 19:-1 21:-1 23:0.142857 25:-0.333333 26:-0.428571 29:-0.205007 30:0.0514436 31:0.0975611 32:-0.0823533 33:0.544743 34:-0.048261 35:0.680558 36:-0.124652 37:-0.973941 38:-0.375948 39:0.333483 40:-0.42579 41:0.786135 42:-0.17354 43:-1 45:0.295818 46:-0.136433 
-0.07680608 1:0.355499 2:0.136111 3:-0.424055 4:-0.112634 5:-0.234568 6:0.0178571 7:-0.359413 8:-0.148545 9:-0.34119 10:-0.164628 11:1 12:-1 13:-0.999704 14:0.163888 15:-0.146705 16:-0.0858058 17:-1 18:0.25 19:-1 21:-1 23:0.571429 25:-0.111111 26:-0.428571 27:-0.75 29:-0.258174 30:0.0951703 31:0.195122 32:-0.105883 33:0.26922 34:-0.136023 35:0.288243 36:-0.00621344 37:-0.952307 38:-0.396095 39:0.331022 40:-0.42381 41:0.878013 42:-0.172344 43:-0.991654 44:0.000389029 45:0.344937 46:-0.271797 
-0.07680608 1:0.355499 2:0.136111 3:-0.424055 4:-0.112634 5:-0.234568 6:0.0178571 7:-0.359413 8:-0.148545 9:-0.34119 10:-0.164628 11:1 12:-1 13:-0.671247 14:0.137437 15:-0.146314 16:-0.283208 17:-0.6 18:0.25 19:-1 21:-1 23:0.285714 25:-0.777778 26:-0.142857 27:-0.75 29:-0.0146732 30:0.188078 31:-0.195122 32:-0.0823534 33:-0.150175 34:0.337722 35:0.777667 36:-0.065548 37:-0.848936 38:-0.399586 39:0.0237759 40:-0.273258 41:0.929684 42:-0.200037 43:-0.457502 44:0.0633258 45:-0.100916 46:-0.17868 
-0.07680608 1:0.355499 2:0.136111 3:-0.424055 4:-0.112634 5:-0.234568 6:0.0178571 7:-0.359413 8:-0.148545 9:-0.34119 10:-0.164628 11:1 12:-1 13:-0.999837 14:0.209717 15:-0.146385 16:0.0245578 17:-0.2 18:0.25 19:-1 21:-0.333333 23:0.428571 25:-0.111111 26:-0.428571 27:-1 29:0.300148 30:-0.0176367 31:-0.0731707 32:-0.0588236 33:1 34:-0.246184 35:0.749278 36:-0.116751 37:-0.340685 38:-0.398542 39:0.333483 40:-0.427973 41:0.840479 42:-0.170479 43:-1 44:0.0654803 45:0.0516704 46:-0.130039 
-0.07680608 1:0.355499 2:0.136111 3:-0.424055 4:-0.112634 5:-0.234568 6:0.0178571 7:-0.359413 8:-0.148545 9:-0.34119 10:-0.164628 11:1 12:-1 13:-0.490003 14:0.0951554 15:-0.146405 16:-0.504503 17:-0.8 18:0.25 19:-1 21:-1 23:0.571429 24:-0.4 25:-0.777778 26:-0.142857 27:-0.75 29:-0.0332639 30:0.14089 31:-0.195122 32:-0.105883 33:0.485029 34:-0.0895976 35:0.176305 36:0.327625 37:-0.737797 38:-0.431153 39:-0.0368764 40:-0.274238 41:0.784503 42:-0.175694 43:-0.239702 44:0.141303 45:-0.106011 46:-0.206683 
-0.07680608 1:-0.140665 2:0.405556 3:0.109278 4:-0.444968 5:0.382716 6:-0.428571 7:-0.119804 8:-0.298622 9:0.179574 10:-0.48899 11:-0.378426 12:-0.0583089 13:-0.97308 14:0.174645 15:-0.146956 16:-0.397295 17:0.4 19:-1 21:-1 23:0.285714 24:-0.4 25:-0.333333 26:-0.714286 27:-0.5 29:-0.7949 30:0.811021 31:0.658536 32:-0.505882 33:0.594865 34:0.00514085 35:0.232671 36:-0.0304727 37:-0.595854 38:-0.508722 39:0.503535 40:-0.567458 41:0.815156 42:-0.168781 43:-0.986191 44:0.0213751 45:0.640499 46:-0.574001 
-0.07680608 1:-1 2:0.872222 3:0.443299 4:-0.653105 5:0.382716 6:-0.428571 7:0.422983 8:-0.638591 9:0.8844 10:-0.927997 11:-0.419159 12:-0.0304818 13:-0.667008 14:-0.009949 15:-0.146264 16:-0.124189 17:-0.2 19:-0.666667 21:-0.333333 23:0.571429 25:-0.333333 26:-0.142857 27:-1 29:0.124683 30:0.14521 31:0.292683 32:-0.364706 33:0.231406 34:-0.0324713 35:-0.179069 36:0.464033 37:-0.769387 38:-0.449645 39:0.46486 40:-0.563554 41:0.517573 42:0.0682072 43:-0.64114 44:-0.269047 45:0.526275 46:-0.544293 
-0.07680608 1:-1 2:0.872222 3:0.443299 4:-0.653105 5:0.382716 6:-0.428571 7:0.422983 8:-0.638591 9:0.8844 10:-0.927997 11:-0.419159 12:-0.0304818 13:-0.109557 14:-0.205369 15:-0.145963 16:0.212093 17:-0.8 18:0.25 20:-0.333333 21:-1 24:-0.6 25:-0.777778 26:-0.142857 27:-0.75 29:0.513778 30:-0.265663 31:9.45127e-08 32:-0.388236 33:-0.41844 34:0.450296 35:0.896431 36:-0.105418 37:-0.72309 38:-0.433871 39:0.140055 40:-0.431199 41:-0.0526683 42:0.562383 43:-0.172961 44:0.23841 45:-0.167063 46:-0.411642 
-0.07680608 1:-1 2:0.872222 3:0.443299 4:-0.653105 5:0.382716 6:-0.428571 7:0.422983 8:-0.638591 9:0.8844 10:-0.927997 11:-0.419159 12:-0.0304818 13:0.201997 14:-0.45102 15:-0.145956 16:0.120261 17:-0.6 18:0.25 19:-0.333333 21:-1 23:-0.142857 25:-0.777778 26:-0.142857 27:-1 29:0.455837 30:-0.357208 31:-0.268293 32:0.035294 33:-0.301899 34:-0.144416 35:0.582121 36:-0.115294 37:-0.879852 38:-0.398821 39:0.0198385 40:-0.272589 41:0.197804 42:0.47985 43:0.183731 44:-0.715786 45:-0.248362 46:-0.057756 
-0.07680608 1:-1 2:0.872222 3:0.443299 4:-0.653105 5:0.382716 6:-0.428571 7:0.422983 8:-0.638591 9:0.8844 10:-0.927997 11:-0.419159 12:-0.0304818 13:-0.473874 14:-0.0312578 15:-0.146227 16:-0.0452494 17:-0.4 18:0.25 20:-0.333333 21:-1 23:-0.142857 24:-0.4 25:-0.333333 26:-0.142857 27:-1 29:0.375349 30:0.139974 31:0.243902 32:-0.576471 33:-0.394886 34:0.53234 35:-0.0906342 36:0.516886 37:-0.645661 38:-0.43671 39:0.384213 40:-0.556973 41:0.289499 42:-0.00912497 43:-0.545777 44:0.109918 45:0.192113 46:-0.555395 
-0.07680608 1:-1 2:0.872222 3:0.443299 4:-0.653105 5:0.382716 6:-0.428571 7:0.422983 8:-0.638591 9:0.8844 10:-0.927997 11:-0.419159 12:-0.0304818 13:0.202376 14:-0.437353 15:-0.146039 16:-0.062757 17:-0.4 18:0.25 19:0.333333 20:-0.333333 21:-1 23:-0.714286 25:-0.555556 26:-0.142857 27:-1 29:0.697904 30:-0.452447 31:-0.0975611 32:-0.152941 33:-0.255512 34:0.262813 35:-0.0126445 36:0.715064 37:-0.740969 38:-0.418296 39:-0.0235263 40:-0.293594 41:0.0698719 42:0.554884 43:0.133037 44:-0.285853 45:-0.174268 46:-0.12145 
-0.07680608 1:-1 2:0.872222 3:0.443299 4:-0.653105 5:0.382716 6:-0.428571 7:0.422983 8:-0.638591 9:0.8844 10:-0.927997 11:-0.419159 12:-0.0304818 13:0.213376 14:-0.503261 15:-0.145863 16:0.18206 17:-0.6 18:0.25 21:-1 23:-0.428571 25:-0.555556 26:-0.142857 27:-1 29:0.459131 30:-0.51674 31:-0.146342 32:-0.0117649 33:-0.557687 34:0.0622672 35:0.724921 36:-0.118247 37:-0.749706 38:-0.426042 39:-0.0924664 40:-0.210623 41:0.443931 42:0.202398 43:0.0781439 44:-0.412972 45:-0.154917 46:-0.132738 
-0.07680608 1:0.202046 2:0.219444 3:-0.597251 4:-0.00471092 5:0.0617284 6:-0.196429 7:-0.696822 8:0.0627871 9:-0.531987 10:-0.0457882 11:-0.701334 12:0.16229 13:-1 14:0.164108 15:-0.147036 16:0.152505 17:-0.4 18:0.25 19:-1 21:-1 23:0.285714 25:-0.333333 26:-0.142857 27:-0.25 29:-0.568713 30:-0.0438464 31:0.292683 32:0.105882 33:0.239682 34:-0.236007 35:0.290549 36:0.228402 37:-0.890128 38:-0.436112 39:0.167725 40:-0.292395 41:0.845503 42:-0.172731 43:-1 45:0.319802 46:0.0352233 
-0.07680608 1:0.202046 2:0.219444 3:-0.597251 4:-0.00471092 5:0.0617284 6:-0.196429 7:-0.696822 8:0.0627871 9:-0.531987 10:-0.0457882 11:-0.701334 12:0.16229 13:-0.998189 14:0.17617 15:-0.146617 16:-0.0592691 17:-0.8 18:0.25 19:-0.333333 21:-1 23:0.428571 24:-0.2 25:-0.777778 26:-0.142857 27:-1 29:0.295144 30:-0.0338473 31:-0.0243901 32:0.105882 33:0.118981 34:-0.209988 35:0.31851 36:0.0935277 37:-0.933207 38:-0.407621 39:0.162757 40:-0.291134 41:0.543702 42:0.0218915 43:-0.948255 44:-0.0147348 45:-0.0716997 46:0.029446 
-0.07680608 1:0.202046 2:0.219444 3:-0.597251 4:-0.00471092 5:0.0617284 6:-0.196429 7:-0.696822 8:0.0627871 9:-0.531987 10:-0.0457882 11:-0.701334 12:0.16229 13:-0.986516 14:0.172533 15:-0.146752 16:0.00999213 18:0.25 19:-1 21:-1 23:-0.142857 25:-0.555556 26:-0.142857 27:-0.75 29:-0.0177061 30:-0.101838 31:-0.0243901 32:0.176471 33:0.668626 34:-0.307244 35:0.2484 36:0.0848212 37:-0.881082 38:-0.421676 39:0.154072 40:-0.291597 41:0.815714 42:-0.166642 43:-0.937282 44:-0.0198217 45:-0.0421254 46:0.0362837 
-0.07680608 1:0.202046 2:0.219444 3:-0.597251 4:-0.00471092 5:0.0617284 6:-0.196429 7:-0.696822 8:0.0627871 9:-0.531987 10:-0.0457882 11:-0.701334 12:0.16229 13:-0.744953 14:0.155932 15:-0.146334 16:-0.0157488 17:-0.8 18:0.25 19:0.333333 21:-1 23:-0.428571 25:-0.777778 26:-0.142857 27:-1 29:0.739144 30:-0.120258 31:-0.268293 32:0.129412 33:-0.110918 34:-0.231968 35:0.795825 36:-0.0391025 37:-0.809945 38:-0.396922 39:-0.0257988 40:-0.211832 41:0.0854704 42:-0.156023 43:-0.427156 44:-0.0699554 45:-0.309948 46:0.0631652 
-0.07680608 1:0.202046 2:0.219444 3:-0.597251 4:-0.00471092 5:0.0617284 6:-0.196429 7:-0.696822 8:0.0627871 9:-0.531987 10:-0.0457882 11:-0.701334 12:0.16229 13:-0.865034 14:0.142669 15:-0.146356 16:0.0548376 17:-0.2 18:0.25 19:-1 21:-0.333333 23:0.142857 25:-0.333333 26:-0.142857 27:-0.75 28:-0.5 29:0.133777 30:0.000522127 31:-0.170732 32:0.0117646 33:0.226568 34:-0.365577 35:0.629476 36:-0.0651453 37:-0.822447 38:-0.426992 39:0.118151 40:-0.279313 41:0.81713 42:-0.101504 43:-0.820116 44:0.00759545 45:-0.069115 46:0.0144417 
-0.07680608 1:0.202046 2:0.219444 3:-0.597251 4:-0.00471092 5:0.0617284 6:-0.196429 7:-0.696822 8:0.0627871 9:-0.531987 10:-0.0457882 11:-0.701334 12:0.16229 13:-0.818931 14:0.134893 15:-0.146656 16:-0.254249 18:0.25 19:-1 21:-1 25:-0.111111 26:-0.142857 27:-0.25 29:0.456794 30:-0.047466 31:-0.341464 32:0.129412 33:0.283777 34:-0.149662 35:0.416062 36:0.49253 37:-0.723616 38:-0.412362 39:0.0733416 40:-0.261566 41:0.837476 42:-0.170997 43:-0.758685 44:0.0181448 45:-0.151146 46:0.0417719 
-0.07680608 1:0.202046 2:0.219444 3:-0.597251 4:-0.00471092 5:0.0617284 6:-0.196429 7:-0.696822 8:0.0627871 9:-0.531987 10:-0.0457882 11:-0.701334 12:0.16229 13:-0.763429 14:0.142427 15:-0.14631 16:-0.173014 18:0.25 19:-1 21:-1 23:-0.428571 25:-0.555556 26:-0.142857 27:-0.75 29:0.548243 30:-0.0410038 31:-0.585366 32:0.129412 33:0.197156 34:-0.154855 35:0.688255 36:-0.0755394 37:-0.718098 38:-0.421885 39:-0.0236721 40:-0.226513 41:0.636042 42:-0.118286 43:-0.403165 44:-0.0538926 45:-0.538821 46:0.0700728 
-0.07680608 1:0.202046 2:0.219444 3:-0.597251 4:-0.00471092 5:0.0617284 6:-0.196429 7:-0.696822 8:0.0627871 9:-0.531987 10:-0.0457882 11:-0.701334 12:0.16229 13:-0.334578 14:0.141006 15:-0.145641 16:0.031456 17:-0.4 18:0.25 19:-1 21:-1 23:-0.428571 25:-0.777778 26:-0.142857 27:-0.75 29:0.520413 30:-0.105767 31:-0.731708 32:0.152941 33:0.128997 34:-0.239889 35:0.668708 36:-0.120453 37:-0.927857 38:-0.364949 39:-0.285663 40:-0.149144 41:0.532876 42:0.00705071 43:0.569218 44:-0.240224 45:-0.704049 46:0.0885059 
-0.07680608 1:0.202046 2:0.219444 3:-0.597251 4:-0.00471092 5:0.0617284 6:-0.196429 7:-0.696822 8:0.0627871 9:-0.531987 10:-0.0457882 11:-0.701334 12:0.16229 13:-0.992507 14:0.171959 15:-0.146402 16:0.469389 17:0.6 19:-1 21:-0.333333 23:0.142857 25:-0.555556 26:-0.142857 27:-1 29:0.326929 30:-0.223957 31:-0.024391 32:0.105882 33:0.901326 34:-0.198237 35:0.115114 36:-0.150887 37:-0.873132 38:-0.418606 39:0.163174 40:-0.292027 41:0.825686 42:-0.175429 43:-0.982096 44:0.00296735 45:0.148153 46:0.044873 
-0.07680608 1:0.268542 2:0.183333 3:-0.294845 4:-0.193148 5:-0.0864198 6:-0.0892857 7:-0.471883 8:-0.0781011 9:-0.277217 10:-0.204474 11:-0.710568 12:0.168598 13:-0.1307 14:0.00245529 15:-0.145772 16:0.00728884 17:-0.6 18:0.25 19:-0.333333 21:-1 23:-0.714286 25:-0.777778 26:-0.142857 27:-0.5 29:0.760588 30:-0.0959774 31:-0.731708 32:0.129412 33:0.0304934 34:-0.171746 35:0.689248 36:-0.102234 37:-0.853795 38:-0.383562 39:-0.330223 40:-0.100537 41:0.17852 42:-0.0302459 43:0.54522 44:-0.278631 45:-0.649505 46:0.0833342 
-0.07680608 1:0.268542 2:0.183333 3:-0.294845 4:-0.193148 5:-0.0864198 6:-0.0892857 7:-0.471883 8:-0.0781011 9:-0.277217 10:-0.204474 11:-0.710568 12:0.168598 13:-0.400048 14:0.0336013 15:-0.145963 16:0.0244249 17:-0.4 18:0.25 19:-1 21:-0.333333 23:-0.142857 25:-0.777778 26:-0.142857 27:-1 29:0.252023 30:-0.106953 31:-0.414634 32:0.0352941 33:-0.287894 34:0.162356 35:0.299513 36:-0.088158 37:-0.914758 38:-0.387081 39:-0.186306 40:-0.162557 41:0.817198 42:-0.0653971 43:0.164181 44:-0.183635 45:-0.294544 46:0.0253232 
-0.07680608 1:0.268542 2:0.183333 3:-0.294845 4:-0.193148 5:-0.0864198 6:-0.0892857 7:-0.471883 8:-0.0781011 9:-0.277217 10:-0.204474 11:-0.710568 12:0.168598 13:-0.868786 14:0.119059 15:-0.146582 16:-0.142309 17:-0.6 18:0.25 19:-1 21:-1 23:-0.285714 25:-0.111111 26:-0.142857 29:-0.00482913 30:-0.0721443 31:-0.0487805 32:-0.0588237 33:-0.285942 34:0.294602 35:0.433364 36:0.527203 37:-0.808836 38:-0.408148 39:0.125771 40:-0.283422 41:0.858227 42:-0.145455 43:-0.719642 44:-0.11358 45:0.0763434 46:-0.0659995 
-0.07680608 1:0.268542 2:0.183333 3:-0.294845 4:-0.193148 5:-0.0864198 6:-0.0892857 7:-0.471883 8:-0.0781011 9:-0.277217 10:-0.204474 11:-0.710568 12:0.168598 13:-0.772722 14:0.108283 15:-0.146519 16:-0.271967 17:-0.8 18:0.25 19:-1 21:-0.333333 23:-0.285714 24:-0.2 25:-0.333333 26:-0.142857 29:0.25532 30:-0.00539756 31:-0.170732 32:-0.0588237 33:-0.0456021 34:0.201962 35:0.187346 36:0.312187 37:-0.811522 38:-0.428686 39:0.122744 40:-0.306308 41:0.815496 42:-0.187709 43:-0.615482 44:-0.0264271 45:-0.159622 46:-0.0796913 
-0.07680608 1:0.268542 2:0.183333 3:-0.294845 4:-0.193148 5:-0.0864198 6:-0.0892857 7:-0.471883 8:-0.0781011 9:-0.277217 10:-0.204474 11:-0.710568 12:0.168598 13:-0.990497 14:0.160682 15:-0.146646 16:0.0394575 17:-0.4 19:0.333333 21:-0.333333 23:-0.142857 24:-0.2 25:-0.333333 26:-0.428571 27:-1 29:0.32889 30:0.356509 31:0.146341 32:-0.176471 33:0.0660159 34:0.101401 35:0.0965594 36:-0.129926 37:-0.921591 38:-0.403526 39:0.214945 40:-0.334248 41:0.627543 42:-0.220129 43:-0.991764 44:0.0377519 45:0.24832 46:-0.241404 
-0.07680608 1:0.268542 2:0.183333 3:-0.294845 4:-0.193148 5:-0.0864198 6:-0.0892857 7:-0.471883 8:-0.0781011 9:-0.277217 10:-0.204474 11:-0.710568 12:0.168598 13:-0.815874 14:0.107549 15:-0.146205 16:0.215575 18:0.25 19:-0.666667 21:-0.333333 23:-0.285714 24:-0.2 25:-0.111111 26:-0.142857 27:-1 29:0.343521 30:-0.101279 31:-0.195123 32:0.0117648 33:0.284584 34:-0.0515659 35:0.378052 36:-0.326781 37:-0.851249 38:-0.401996 39:0.113125 40:-0.286527 41:0.336843 42:-0.173819 43:-0.71475 44:0.0151614 45:-0.16154 46:-0.0805891 
-0.07680608 1:0.268542 2:0.183333 3:-0.294845 4:-0.193148 5:-0.0864198 6:-0.0892857 7:-0.471883 8:-0.0781011 9:-0.277217 10:-0.204474 11:-0.710568 12:0.168598 13:-0.566175 14:0.0602659 15:-0.145882 16:0.124326 17:-0.6 18:0.25 19:-1 21:-1 23:-0.285714 25:-0.555556 26:-0.142857 27:-0.25 29:0.158224 30:-0.0305724 31:-0.341464 32:0.0588234 33:0.171268 34:0.240204 35:0.301972 36:-0.111554 37:-0.84751 38:-0.387217 39:-0.0927892 40:-0.204042 41:0.800578 42:-0.117354 43:-0.160801 44:-0.0670632 45:-0.22507 46:0.000562936 
-0.07680608 1:0.268542 2:0.183333 3:-0.294845 4:-0.193148 5:-0.0864198 6:-0.0892857 7:-0.471883 8:-0.0781011 9:-0.277217 10:-0.204474 11:-0.710568 12:0.168598 13:-0.944235 14:0.179802 15:-0.14635 16:-0.0575382 17:0.2 18:0.25 19:-1 21:-1 25:-0.111111 26:-0.142857 27:-1 29:0.133467 30:-0.145831 31:-0.170732 32:0.0117648 33:0.539735 34:-0.201752 35:0.394789 36:0.014824 37:-0.796638 38:-0.413908 39:0.178677 40:-0.315503 41:0.800889 42:-0.13096 43:-0.869689 44:0.0405046 45:0.07353 46:-0.129444 
-0.07680608 1:0.846547 2:-0.130556 3:-0.0171821 4:-0.366167 5:-0.753086 6:0.392857 7:-0.315403 8:-0.17611 9:-0.142536 10:-0.288361 11:-0.321984 12:-0.0968682 13:-0.45217 14:-0.0368573 15:-0.146114 16:0.103931 17:-0.4 18:0.25 19:-1 21:-0.333333 25:-0.777778 26:-0.142857 27:-1 29:0.326724 30:-0.0833144 31:-0.390244 32:0.105882 33:0.0674164 34:-0.134921 35:0.438312 36:-0.112436 37:-0.750331 38:-0.436028 39:-0.0793784 40:-0.191974 41:0.774461 42:-0.174506 43:-0.229588 44:-0.103594 45:-0.201673 46:-0.0178703 
-0.07680608 1:0.846547 2:-0.130556 3:-0.0171821 4:-0.366167 5:-0.753086 6:0.392857 7:-0.315403 8:-0.17611 9:-0.142536 10:-0.288361 11:-0.321984 12:-0.0968682 13:-0.227429 14:-0.0892655 15:-0.146029 16:0.0895892 17:-0.6 18:0.25 19:-1 21:-1 23:-0.142857 25:-0.555556 26:-0.142857 27:-0.75 29:-0.00854746 30:-0.0739061 31:-0.414634 32:0.105882 33:-0.41182 34:0.25059 35:0.380114 36:-0.11445 37:-0.747064 38:-0.435646 39:-0.334995 40:-0.0474832 41:0.943896 42:-0.19849 43:0.153386 44:-0.177969 45:-0.315753 46:0.0155905 
-0.07680608 1:0.846547 2:-0.130556 3:-0.0171821 4:-0.366167 5:-0.753086 6:0.392857 7:-0.315403 8:-0.17611 9:-0.142536 10:-0.288361 11:-0.321984 12:-0.0968682 13:-0.992366 14:0.160061 15:-0.146577 16:-0.0701227 17:-0.6 18:0.25 19:-1 21:-1 23:0.142857 24:-0.2 25:-0.111111 26:-0.142857 27:-0.5 29:-0.232618 30:0.010216 31:0.439025 32:-0.129412 33:0.482186 34:-0.0460578 35:0.65336 36:-0.117384 37:-0.86839 38:-0.406849 39:0.55666 40:-0.607322 41:0.816918 42:-0.161154 43:-0.992593 44:0.00348784 45:0.323638 46:-0.236077 
-0.07680608 1:0.846547 2:-0.130556 3:-0.0171821 4:-0.366167 5:-0.753086 6:0.392857 7:-0.315403 8:-0.17611 9:-0.142536 10:-0.288361 11:-0.321984 12:-0.0968682 13:-0.463931 14:-0.0408633 15:-0.146086 16:-0.0126903 17:-1 18:0.25 19:-1 21:-1 23:0.142857 25:-0.333333 26:-0.428571 27:-0.5 29:-0.196412 30:-0.0873063 31:-0.219512 32:0.105882 33:0.0273528 34:-0.0545035 35:0.530962 36:-0.0848212 37:-0.744422 38:-0.426831 39:-0.0855004 40:-0.197083 41:0.924208 42:-0.173105 43:-0.103655 44:-0.232859 45:-0.166677 46:-0.0366454 
-0.07680608 1:0.846547 2:-0.130556 3:-0.0171821 4:-0.366167 5:-0.753086 6:0.392857 7:-0.315403 8:-0.17611 9:-0.142536 10:-0.288361 11:-0.321984 12:-0.0968682 13:-0.365863 14:-0.0584118 15:-0.145938 16:0.175695 17:-1 18:0.25 19:-1 21:-0.333333 23:0.142857 25:-1 26:-0.142857 27:-0.75 29:0.0576196 30:-0.0849008 31:-0.341463 32:0.105882 33:-0.357072 34:0.0172586 35:0.10899 36:-0.0914373 37:-0.754387 38:-0.437091 39:-0.180429 40:-0.145406 41:0.966198 42:-0.18379 43:0.0445015 44:-0.307172 45:-0.289095 46:0.0103414 
-0.07680608 1:0.846547 2:-0.130556 3:-0.0171821 4:-0.366167 5:-0.753086 6:0.392857 7:-0.315403 8:-0.17611 9:-0.142536 10:-0.288361 11:-0.321984 12:-0.0968682 13:-0.908092 14:0.150718 15:-0.146433 16:-0.281703 17:-0.4 18:0.25 19:-1 21:-1 23:0.428571 25:-0.555556 26:-0.142857 27:-0.75 29:-0.363208 30:0.182352 31:0.0487807 32:-0.105883 33:0.31217 34:-0.0521954 35:0.740268 36:-0.0238374 37:-0.816754 38:-0.430351 39:0.452288 40:-0.539547 41:0.88065 42:-0.184757 43:-0.837027 44:-0.0149548 45:0.185593 46:-0.177197 
-0.06022903801878729 1:0.846547 2:-0.130556 3:-0.0171821 4:-0.366167 5:-0.753086 6:0.392857 7:-0.315403 8:-0.17611 9:-0.142536 10:-0.288361 11:-0.321984 12:-0.0968682 13:-0.896509 14:0.153251 15:-0.146506 16:0.0279256 17:0.2 18:0.25 19:-1 21:-0.333333 25:-0.333333 26:-0.142857 27:-1 29:0.105265 30:0.126491 31:0.243902 32:-0.22353 33:-0.114822 34:0.363269 35:0.136173 36:0.0165692 37:-0.730394 38:-0.466072 39:0.438642 40:-0.529378 41:0.820571 42:-0.188149 43:-0.777766 44:-0.0656332 45:0.189296 46:-0.122343 
-0.07680608 1:0.846547 2:-0.130556 3:-0.0171821 4:-0.366167 5:-0.753086 6:0.392857 7:-0.315403 8:-0.17611 9:-0.142536 10:-0.288361 11:-0.321984 12:-0.0968682 13:-0.87912 14:0.13925 15:-0.146412 16:-0.220218 17:0.8 18:-0.25 19:-1 21:-1 24:-0.2 25:-0.111111 26:-0.428571 27:-0.75 29:-0.432988 30:0.384863 31:0.0975609 32:-0.2 33:0.336233 34:0.00236059 35:0.192004 36:-0.00533129 37:-0.788686 38:-0.426225 39:0.4376 40:-0.537358 41:0.708112 42:-0.125448 43:-0.777766 44:-0.0656359 45:0.20461 46:-0.219733 
-0.07680608 1:0.846547 2:-0.130556 3:-0.0171821 4:-0.366167 5:-0.753086 6:0.392857 7:-0.315403 8:-0.17611 9:-0.142536 10:-0.288361 11:-0.321984 12:-0.0968682 13:-0.733703 14:0.130629 15:-0.146493 16:-0.571915 17:0.4 18:0.25 19:-1 21:-0.333333 22:-0.5 23:-0.714286 25:-0.333333 26:-0.142857 27:-0.75 29:0.290138 30:-0.0791948 31:-0.146342 32:-0.0588237 33:0.0690292 34:-0.0349892 35:0.754746 36:-0.174398 37:-0.701472 38:-0.44141 39:0.23485 40:-0.420971 41:0.522446 42:-0.197372 43:-0.526965 44:-0.0655151 45:-0.114765 46:-0.20563 
